svm_type c_svc
kernel_type rbf
gamma 0.000361402
nr_class 2
total_sv 707
rho -1.00298
label -1 1
nr_sv 429 278
SV
0.03206964163371585 0:1 2:1 11:1 40:1 50:2 57:1 85:1 106:1 185:1 190:1 206:1 231:1 393:1 394:1 481:1 1270:1 1329:1 1330:1 1331:1 1332:1 
0.07523869983576176 0:1 11:1 17:1 57:2 106:1 163:1 200:1 201:1 473:1 935:1 936:1 1061:1 1256:1 1347:1 
0.3 0:1 2:1 7:1 11:1 31:1 149:1 214:1 1012:1 1355:1 
0.1145719132070038 0:1 2:1 11:1 13:1 17:2 27:1 37:1 133:2 151:1 161:1 430:1 1356:1 1357:1 1358:1 1359:1 1360:1 1361:1 
0.02027996643560748 0:1 2:1 6:1 7:1 11:1 13:1 17:1 20:1 34:1 37:2 43:1 50:2 57:1 75:1 133:1 151:1 161:1 169:1 189:1 230:1 235:1 241:1 248:1 267:1 388:1 552:1 607:1 712:1 768:1 1020:1 1354:1 1381:1 1382:2 1383:1 
0.178167947590844 0:1 2:1 7:1 13:1 24:2 27:1 37:1 53:1 57:1 75:1 85:3 104:1 133:1 215:1 276:1 283:1 385:1 391:1 570:1 759:1 847:1 1178:2 1405:1 1406:1 1407:1 
0.3 0:1 7:1 53:1 167:1 
0.3 0:1 7:1 53:1 167:1 
0.0526991893130105 0:1 11:1 75:1 470:1 1023:1 1417:1 
0.3 0:1 31:1 48:1 85:1 112:1 133:1 185:1 445:1 1420:1 
0.3 0:1 2:1 11:1 17:2 34:1 57:1 106:1 151:1 161:1 211:1 244:1 295:2 357:1 418:1 541:1 567:1 872:1 935:1 936:1 1191:1 1219:1 1261:1 1423:1 
0.3 0:1 11:2 17:1 34:1 48:1 60:1 85:1 349:1 357:1 513:1 650:1 699:1 898:1 1033:1 1061:1 1166:1 1346:1 1408:1 1430:1 1431:1 
0.0715219144448932 0:1 7:1 11:1 13:1 27:1 50:1 54:1 85:1 86:1 186:1 231:1 349:1 499:1 1424:1 1435:1 
0.1651108302003018 0:1 2:1 11:1 27:2 31:1 34:1 85:2 90:1 133:1 263:1 270:1 345:1 419:1 605:1 607:1 856:1 1346:1 1429:1 1439:1 1440:1 1441:1 
0.2519068350880719 0:1 13:1 17:1 26:1 34:1 75:1 133:2 151:1 161:1 165:1 219:1 244:1 828:1 938:1 1452:1 1453:1 
0.1732209390409597 0:1 2:1 48:1 85:1 100:1 152:1 688:1 1340:1 1461:1 1462:1 1463:1 1464:1 
0.03952465779835842 0:1 2:1 13:1 17:1 31:1 34:1 43:1 48:1 50:1 53:4 57:2 64:1 79:1 84:1 85:1 88:1 133:1 161:3 168:1 177:1 280:1 349:1 781:1 1061:1 1378:1 1409:1 1470:1 
0.3 0:1 2:3 11:2 19:1 20:1 27:1 34:1 48:1 65:1 106:1 114:1 133:2 208:1 241:1 349:1 353:1 366:1 375:2 561:1 633:1 712:1 731:1 836:1 1245:1 1480:1 
0.227887250479952 0:1 2:3 11:2 17:2 31:1 34:2 48:2 50:2 64:1 72:2 85:2 90:1 132:1 165:1 168:1 295:2 711:1 780:1 898:1 969:1 1086:1 1378:1 1485:1 1486:1 1487:1 1488:1 1489:1 1490:1 1491:1 1492:1 1493:1 1494:1 
0.1064603972749491 0:1 2:2 11:1 13:1 34:1 48:1 50:1 72:1 88:1 106:2 384:1 1301:1 1323:1 1347:2 1485:1 1495:1 1496:1 1497:1 
0.3 0:1 2:1 19:1 37:1 48:1 50:1 202:1 295:1 349:1 366:1 584:1 848:1 
0.1593170337619467 0:1 2:3 11:2 13:1 17:2 20:1 27:2 31:1 34:1 48:1 50:4 77:1 85:2 86:3 106:1 133:1 186:2 206:1 208:2 295:1 349:1 677:1 1072:1 1093:1 1378:1 1522:1 1523:1 1524:1 
0.2333387252372832 0:1 2:1 5:1 11:1 13:2 34:1 50:1 85:1 90:1 295:1 1485:1 1486:1 1525:1 1526:1 1527:1 
0.09271267672053221 0:1 2:1 20:1 34:1 48:1 85:1 151:1 295:1 357:1 1378:1 1559:1 
0.09417212187549519 0:1 2:2 11:1 20:1 27:2 31:1 34:1 48:2 50:2 90:1 106:1 167:1 208:1 301:1 391:1 392:1 583:1 862:1 996:1 1245:1 1433:1 1479:1 1560:1 
0.1425609575167178 0:1 2:1 11:1 37:1 48:1 88:1 106:1 232:1 316:1 353:1 366:1 866:1 867:1 874:1 1564:1 1565:1 1566:1 
0.08015893981602608 0:1 2:1 11:1 13:1 19:1 20:1 34:1 48:1 52:1 75:1 85:2 173:1 277:1 296:1 394:1 868:1 869:1 870:1 1567:1 
0.08366397835054692 0:1 11:1 15:1 17:1 27:1 34:1 48:1 85:1 168:1 353:1 507:1 729:1 1354:1 1381:1 1479:1 1568:1 1569:1 
0.1381712198448384 0:1 2:1 13:1 31:1 48:2 75:1 168:1 261:1 298:1 349:1 476:1 1573:1 1574:1 
0.07068696879506642 0:1 2:2 13:2 17:2 19:1 27:1 48:1 52:1 75:1 85:1 88:1 106:2 133:1 168:1 172:1 173:2 214:1 277:1 346:1 419:1 1127:1 1292:1 1354:1 1378:1 1575:1 
0.3 0:1 57:1 1229:1 
0.1667811233209548 0:1 7:1 1586:1 
0.07614383809939038 0:1 13:1 17:1 20:1 27:1 34:2 48:1 50:1 65:1 75:1 79:1 85:1 106:1 133:1 166:1 168:1 185:1 328:1 380:1 473:1 863:1 1191:1 1256:1 1586:1 1587:1 1588:1 
0.3 0:1 53:2 556:1 1610:1 
0.3 0:1 13:1 57:1 403:1 
0.226685605961334 0:1 7:1 11:1 13:1 48:1 1131:1 1174:1 1462:1 1574:1 
0.1580467641809547 0:1 2:1 7:1 11:1 13:1 27:1 43:1 57:1 114:1 133:1 190:1 214:1 228:1 302:1 349:1 717:1 
0.3 0:1 7:1 17:1 36:1 37:1 133:1 307:1 556:1 773:1 1597:1 
0.03789680345031032 0:1 2:3 11:1 13:1 17:2 20:1 31:1 37:1 43:2 48:1 50:1 88:1 100:1 133:3 151:2 166:1 246:1 267:1 283:1 305:1 310:1 346:1 388:1 418:1 428:1 510:1 544:1 773:1 885:1 1378:1 1622:1 1623:1 
0.3 0:1 2:2 13:1 20:1 27:2 65:1 79:1 85:2 106:1 324:1 477:1 718:1 1061:1 1093:1 1340:1 1378:1 1641:1 
0.3 0:1 17:1 19:1 151:1 691:1 1645:1 1646:1 
0.3 0:1 13:1 75:1 133:1 161:1 248:1 846:1 1647:1 
0.3 0:1 151:1 202:1 
0.2037276167440765 0:1 2:1 11:1 34:1 43:1 79:1 106:1 348:1 473:1 1134:1 1191:1 1219:1 1256:1 1427:1 1651:1 
0.03966047837491805 0:1 2:2 27:1 34:1 53:1 106:2 114:1 279:1 556:1 1061:1 1460:1 1680:1 
0.3 0:1 53:2 1611:1 1612:1 
0.3 0:1 17:2 57:3 190:1 349:1 412:1 556:1 1700:1 
0.09844014705256431 0:1 75:1 85:1 244:1 280:1 394:1 789:1 1701:1 
0.2189137438338601 0:1 2:1 7:2 13:2 20:1 50:1 52:1 57:1 166:1 556:2 1465:1 
0.3 0:1 7:1 11:1 31:1 603:1 
0.04078961063019038 0:1 15:1 17:2 27:1 36:1 57:1 68:1 85:1 211:2 345:1 357:1 814:1 920:1 924:1 945:1 
0.3 0:1 57:5 60:2 85:1 180:1 321:1 420:1 
0.3 0:1 57:1 738:1 768:1 
0.3 0:1 57:4 68:1 77:1 85:1 104:1 106:1 207:1 230:1 948:1 949:1 950:1 
0.08851090267301742 0:1 2:1 13:1 37:1 57:1 168:1 229:1 443:1 949:1 951:1 952:1 
0.03993363577362725 0:1 2:3 11:1 57:1 85:1 173:1 218:1 230:1 298:1 343:1 454:1 953:1 954:1 
0.06442419213289724 0:1 2:2 5:1 14:1 15:1 17:2 31:1 57:3 65:1 77:1 85:1 151:2 161:1 211:1 218:1 228:1 230:1 298:1 408:1 447:1 957:1 
0.3 0:1 2:3 11:1 13:1 17:3 19:2 27:2 31:1 37:1 57:4 68:1 75:2 90:1 122:1 188:1 229:1 423:1 455:1 540:1 656:1 958:1 959:1 960:1 961:1 
0.3 0:1 57:1 75:1 133:1 151:1 241:1 962:1 
0.3 0:1 7:2 11:1 34:1 57:1 99:1 205:1 208:1 976:1 
0.04325062210924319 0:1 7:1 11:1 31:1 976:1 
0.1690389400024243 0:1 2:1 11:2 17:1 34:1 42:1 50:1 52:1 56:1 68:1 84:1 106:1 251:1 473:1 966:1 983:1 984:1 985:1 
0.2183515327800228 0:1 2:1 7:1 11:1 19:1 48:1 68:1 106:1 401:1 976:1 
0.3 0:1 2:1 7:1 13:1 57:3 77:1 188:1 218:1 230:1 364:1 
0.3 0:1 2:1 37:1 57:1 104:1 229:1 552:1 763:1 1008:1 
0.3 0:1 13:1 57:1 68:1 
0.3 0:1 7:1 11:1 13:1 17:1 20:1 25:2 34:1 48:1 50:1 57:2 77:1 85:1 134:1 167:1 200:1 201:1 557:1 956:1 976:1 996:1 
0.3 0:1 57:1 104:1 
0.3 0:1 1014:1 
0.1473108467094328 0:1 11:1 31:2 43:1 56:1 57:2 170:1 310:1 
0.3 0:1 7:1 13:1 295:1 473:1 
0.04400840766217418 0:1 2:2 13:2 34:2 36:1 68:1 85:1 133:1 194:1 291:1 346:1 427:1 496:1 856:1 996:1 1018:1 1019:1 
0.02861161559483831 0:1 2:3 11:2 13:1 20:1 34:2 37:1 43:1 50:1 62:1 68:1 85:2 88:1 167:1 208:1 266:1 406:1 412:1 439:1 621:1 695:1 960:1 1023:1 1024:1 1025:1 1026:1 
0.2559740073352834 0:1 2:2 50:1 86:1 104:1 151:1 479:1 1027:1 
0.3 0:1 2:1 7:1 11:1 20:1 50:1 166:1 184:1 
0.1510382814580625 0:1 2:2 27:1 31:1 34:1 40:1 68:1 79:1 85:1 190:1 194:2 295:1 408:1 459:1 662:1 912:1 1045:1 1046:1 1047:1 
0.0352741598344974 0:1 2:1 11:2 27:1 34:1 85:2 102:1 133:1 208:1 282:1 373:1 476:1 606:1 764:1 859:1 954:1 982:1 1024:1 1048:1 1049:1 
0.3 0:1 57:2 230:1 1062:1 
0.3 0:1 13:1 57:1 1065:1 
0.3 0:1 54:1 57:2 87:1 
0.1467797228672119 0:1 2:1 26:1 57:1 184:1 
0.3 0:1 2:1 26:1 57:2 184:1 
0.1309532687172651 0:1 57:2 62:1 598:1 
0.1903322204715064 0:1 2:2 11:1 50:1 90:1 106:1 131:1 167:1 246:1 276:1 366:1 402:1 408:1 419:1 695:1 1076:1 1077:1 1078:1 
0.3 0:1 2:1 17:1 56:1 57:2 68:1 90:1 1014:2 1080:1 
0.3 0:1 57:1 443:1 
0.2162424693546137 0:1 7:1 11:1 27:1 30:1 34:1 50:1 57:1 79:1 85:1 93:1 106:1 172:1 312:1 372:1 644:1 830:1 898:1 
0.3 0:1 7:1 57:1 79:1 295:1 909:1 
0.03173757320792595 0:1 2:1 11:1 31:2 43:1 77:2 373:1 991:1 1048:1 
0.1192597696746029 0:1 2:1 7:1 11:1 19:1 27:1 57:1 97:1 106:1 133:1 208:1 231:1 349:1 779:1 1082:1 
0.3 0:1 57:1 75:1 910:1 
0.3 0:1 13:1 68:1 173:1 1087:1 
0.1646789463721107 0:1 26:1 57:2 166:1 190:1 364:1 683:1 768:1 
0.3 0:1 13:1 53:1 57:1 71:2 88:1 443:1 
0.3 0:1 53:2 85:1 443:1 1097:1 
0.2564131019544884 0:1 2:1 57:2 166:2 525:2 683:2 1091:1 
0.3 0:1 7:1 53:1 
0.3 0:1 2:1 57:1 68:2 384:1 
0.09421855924035852 0:1 2:4 20:1 37:1 56:1 77:1 85:1 90:1 104:1 106:1 240:1 295:1 305:1 668:1 711:1 856:1 1106:1 1107:1 1108:1 1109:1 
0.132090625918773 0:1 11:1 31:1 57:1 207:1 
0.3 0:1 57:1 244:1 
0.06655302116055478 0:1 7:1 11:1 31:1 57:1 90:1 295:1 357:1 429:1 
0.3 0:1 13:1 57:1 68:1 
0.06506467047757064 0:1 324:1 
0.3 0:1 54:1 57:1 
0.2592612199309084 0:1 2:1 7:3 11:1 17:1 24:1 90:1 133:2 161:1 199:1 206:1 207:3 236:1 244:1 378:1 1124:1 1125:1 
0.3 0:1 19:1 57:2 68:1 106:1 189:1 277:1 353:1 1114:1 
0.3 0:1 13:1 57:1 68:1 
0.04102766178620311 0:1 2:2 20:1 31:1 34:1 37:1 43:1 48:1 56:1 72:1 77:1 85:2 133:1 161:1 168:1 380:1 406:1 465:1 502:1 606:1 654:1 900:1 967:1 
0.1095583182717306 0:1 2:2 7:1 11:1 13:2 17:1 20:1 27:1 36:1 37:2 48:1 85:1 114:1 199:1 232:1 278:1 282:1 353:1 384:1 388:2 409:1 756:1 1016:1 1126:1 1130:1 1131:1 1132:1 1133:1 
0.3 0:1 57:2 75:1 88:1 202:1 
0.001172835756437285 0:1 11:1 17:1 31:1 106:1 151:1 540:1 1135:1 
0.3 0:1 2:1 27:2 85:2 173:2 349:2 385:1 394:1 408:1 1136:1 1137:1 
0.3 0:1 2:2 11:1 26:1 31:1 34:1 37:1 48:1 85:1 167:1 206:1 278:1 349:2 353:1 910:1 980:1 982:1 1114:1 1138:1 1139:1 1140:1 
0.1478265603345303 0:1 7:1 11:1 50:1 85:1 86:1 186:1 207:1 499:1 
0.2349353295224293 0:1 7:1 57:1 324:1 1158:1 
0.08414086051795711 0:1 17:1 20:1 85:1 90:1 133:1 598:1 1159:1 
0.3 0:1 13:1 54:1 57:2 68:1 
0.1690467312827349 0:1 54:1 57:2 65:1 816:1 
0.1889282827454741 0:1 2:1 17:5 20:1 37:1 40:1 42:1 43:1 50:1 52:1 57:2 85:1 133:1 188:1 229:1 230:1 312:1 329:1 347:2 395:1 552:1 1163:1 1164:1 
0.0432095289368916 0:1 2:3 7:1 11:1 13:1 24:1 31:1 34:1 50:1 57:1 68:1 85:1 106:1 163:1 190:1 200:1 201:1 380:1 385:1 493:1 512:1 603:1 635:1 
0.3 0:1 57:1 68:1 106:1 207:1 287:1 
0.1412575015161011 0:1 2:3 11:4 13:1 17:1 19:1 27:3 31:1 34:2 37:1 50:1 57:1 65:1 68:1 70:1 79:2 85:3 100:1 133:1 208:1 266:1 349:2 366:1 373:1 375:1 473:1 583:1 584:1 681:1 712:1 731:1 834:1 954:1 982:1 997:1 1032:1 1048:1 1093:1 1169:1 
0.3 0:1 7:1 53:1 57:1 212:1 
0.1776945790109831 0:1 2:1 27:2 57:1 75:1 79:1 85:1 408:1 645:1 910:1 1173:1 
0.0810862561661399 0:1 2:1 7:2 11:1 13:2 20:1 50:1 53:1 151:1 166:1 556:1 557:1 1174:1 
0.3 0:1 7:1 13:1 57:2 863:1 976:1 
0.1533324175292509 0:1 7:2 11:3 31:1 34:1 57:2 68:1 177:2 190:1 293:1 712:1 976:1 1175:1 1176:1 1177:1 
0.3 0:1 31:1 50:1 53:2 84:1 85:1 161:1 263:1 366:1 455:1 1180:1 
0.3 0:1 7:1 11:1 57:2 324:1 773:1 811:1 
0.3 0:1 7:1 26:1 57:1 
0.3 0:1 1:1 2:1 68:1 1189:1 
0.02693287560583321 0:1 34:1 53:4 68:1 85:3 118:1 177:1 420:2 556:1 557:1 1083:1 
0.3 0:1 2:2 7:2 52:1 133:1 343:1 378:1 409:1 587:1 949:1 951:1 1056:1 1197:1 
0.3 0:1 1:2 2:1 17:1 68:1 90:1 190:1 401:1 1189:1 
0.1502494997566387 0:1 2:3 11:1 13:2 17:1 19:1 20:2 27:1 48:1 75:1 106:1 114:1 133:1 151:1 190:1 199:1 240:1 241:1 278:1 295:1 297:1 349:1 353:1 429:1 444:1 1019:1 1215:1 1216:1 1217:1 1218:1 
0.3 0:1 2:1 5:1 11:2 13:1 17:1 19:1 40:1 48:1 68:1 75:1 118:1 133:1 215:1 298:1 366:1 811:1 1191:1 1219:1 1220:1 
0.05281459479260679 0:1 2:2 11:1 13:1 17:1 19:1 40:2 68:1 133:1 200:1 201:1 349:1 378:1 455:1 702:1 1056:1 1221:1 
0.1850624420176341 0:1 7:1 57:3 188:2 1224:1 1225:1 
0.3 0:1 7:1 97:1 166:1 231:1 388:1 
0.03762039665523869 0:1 2:1 7:1 11:1 31:2 34:1 43:1 48:1 68:1 85:2 133:1 186:1 188:1 250:1 283:1 316:1 758:1 773:1 1079:1 1115:1 1180:1 
0.140759881751161 0:1 2:5 13:2 17:1 27:2 31:1 34:2 36:1 40:1 50:2 68:1 133:1 199:1 267:1 324:2 349:2 384:1 428:1 437:1 441:1 456:1 466:1 473:1 559:1 1241:1 1242:1 
0.3 0:1 7:1 11:1 31:1 603:1 
0.05026088584582799 0:1 2:1 7:2 11:2 43:1 48:1 62:1 68:1 79:1 287:1 310:1 412:1 811:1 912:1 913:1 914:1 
0.103326854034235 0:1 53:1 57:1 75:1 85:1 324:1 420:1 
0.3 0:1 7:1 57:1 1229:1 
0.06702446684977731 0:1 2:2 7:2 11:2 13:1 20:1 26:1 27:1 37:1 43:1 48:1 50:3 56:1 77:1 79:1 85:1 86:2 106:1 177:1 355:1 373:1 455:1 842:1 976:1 1072:1 1248:1 1249:1 1250:1 1251:1 
0.07035293394238613 0:1 34:1 57:1 85:1 86:1 106:1 177:1 328:1 406:1 473:1 976:1 998:1 1252:1 
0.2771942253037371 0:1 2:2 13:1 17:1 25:1 27:1 53:1 57:2 72:1 85:2 118:1 133:1 200:1 201:1 215:1 366:1 406:1 557:2 691:1 779:1 956:1 1206:1 1257:1 1258:1 
0.04121169170505327 0:1 2:2 11:3 12:1 17:2 19:1 20:2 34:2 40:2 43:1 48:1 68:1 85:1 133:1 173:2 181:1 349:2 375:1 384:1 454:1 656:1 706:1 945:1 959:1 1056:1 1197:1 1249:1 1266:1 
0.0273096776057438 0:1 2:2 11:2 17:2 27:1 34:2 40:1 53:1 68:1 90:1 106:1 112:1 114:1 133:2 202:1 230:1 298:1 378:2 419:1 423:1 455:1 587:1 712:1 718:1 856:1 1056:2 1221:1 
0.1274603245110284 0:1 2:1 5:1 11:1 12:1 13:1 17:1 34:1 48:1 60:1 71:1 85:3 168:1 295:1 391:1 541:1 547:1 706:1 1115:1 1267:1 1268:1 
0.0199002173435661 0:1 2:3 12:1 13:1 15:1 17:1 20:1 27:2 34:1 50:1 56:1 68:1 75:1 85:1 106:1 133:2 151:1 168:1 170:1 186:1 190:1 349:1 385:1 738:1 1269:1 1270:1 1271:1 
0.04428151622030298 0:1 2:1 11:1 17:1 31:1 50:1 54:1 68:1 85:1 106:1 1243:1 1246:1 1274:1 1275:1 
0.2420137705408133 0:1 57:2 916:1 935:1 948:1 
0.2167072007568865 0:1 2:2 48:1 65:1 85:2 88:1 278:1 651:1 914:1 1285:1 1286:1 1287:2 
0.2014822717046205 0:1 2:1 11:2 68:2 106:1 364:1 523:1 1288:1 
0.3 0:1 2:1 53:3 75:1 85:1 291:1 786:1 1289:1 
0.3 0:1 15:1 17:1 42:2 52:1 230:1 1290:1 
0.2086724848604626 0:1 2:3 11:2 13:1 17:1 19:1 27:1 48:1 54:1 62:1 65:1 68:1 79:1 84:1 100:1 106:1 190:1 202:1 277:1 282:1 315:1 406:1 552:2 841:1 866:1 871:1 898:1 1291:1 1292:1 1293:1 1294:1 
0.0595005563222614 0:1 2:1 11:1 20:1 48:1 90:1 124:1 133:1 240:1 391:1 678:1 867:1 976:1 1288:1 
0.3 0:1 2:5 13:2 17:2 27:1 48:1 68:1 85:1 100:1 106:1 121:1 124:1 133:2 208:1 298:1 375:1 880:1 976:1 997:1 1116:1 1246:1 1295:1 1296:1 1297:1 
0.3 0:1 11:1 15:1 118:1 
0.05919046074258817 0:1 2:1 11:2 13:1 48:1 68:1 199:1 349:1 523:1 793:1 1277:1 1300:1 
0.1725283881106535 0:1 2:3 19:1 20:1 37:1 50:1 52:1 53:2 65:1 68:1 88:1 106:1 118:1 133:1 278:1 310:1 384:1 406:1 867:1 1053:1 1301:1 
0.2490374295475756 0:1 2:2 11:1 27:1 34:2 68:1 79:1 85:1 466:1 702:1 712:1 842:1 898:1 1307:1 1308:1 1309:1 
0.06044583466933422 0:1 2:2 5:1 11:2 13:1 17:2 19:1 31:1 34:2 40:1 48:1 50:3 52:1 68:2 75:1 85:1 106:2 167:1 186:1 190:1 298:1 349:1 419:1 540:1 603:1 621:1 656:1 976:1 1093:1 1311:1 1312:1 
0.07563797783524816 0:1 2:1 7:1 11:1 17:1 106:1 114:1 133:1 244:1 277:1 282:1 409:1 418:1 513:1 544:1 603:1 774:1 1319:1 
0.3 0:1 17:1 153:1 619:1 719:1 735:1 
0.3 0:1 2:1 11:1 27:1 85:1 276:1 473:1 1281:1 1324:1 1325:1 1326:1 
0.2464231770668998 0:1 43:1 48:1 53:1 73:1 74:1 75:1 
0.1975197607410926 0:1 1:1 2:1 4:1 13:3 17:1 50:1 75:1 76:1 100:1 101:1 104:1 106:1 115:1 116:1 
0.1368641329491508 0:1 7:2 75:1 85:1 88:1 131:1 132:1 133:1 134:1 135:1 
0.3 0:1 2:1 34:1 50:1 85:1 122:1 140:1 141:1 142:1 143:1 144:1 
0.1886701676648929 0:1 1:1 2:2 7:1 15:1 27:1 34:2 85:1 104:1 145:1 146:1 147:1 148:1 
0.3 0:1 1:1 2:1 53:1 153:1 
0.168048908276289 0:1 7:2 13:1 75:1 99:1 163:1 164:1 165:1 
0.152310198973422 0:1 2:1 27:1 50:1 53:1 174:1 
0.2665353061421527 0:1 2:1 7:1 11:1 48:1 68:1 176:1 177:1 178:1 
0.2083746724414603 0:1 2:2 7:1 192:1 193:1 194:3 195:1 196:1 197:1 198:1 
0.1382317859608215 0:1 2:1 7:1 11:1 27:1 54:1 106:1 133:1 203:1 204:1 205:1 206:1 207:1 208:1 209:1 
0.1119703425445275 0:1 2:3 27:1 40:1 53:2 79:1 90:1 133:1 217:1 218:1 219:2 
0.3 0:1 2:1 17:1 34:1 122:1 218:1 220:1 221:1 222:1 
0.1841170732591914 0:1 53:1 173:1 223:1 224:1 225:1 
0.3 0:1 13:1 34:1 53:1 75:1 122:1 123:1 133:1 314:1 315:1 316:1 317:1 
0.2653142263250188 0:1 1:1 2:1 7:1 13:1 43:1 50:1 79:1 85:1 327:1 328:1 
0.1322830583783572 0:1 13:1 17:1 34:1 50:1 104:1 122:1 123:1 332:1 333:1 334:1 
0.2015598529474357 0:1 42:1 151:1 335:1 336:1 
0.3 0:1 53:1 347:1 
0.02984259383481877 0:1 2:1 31:1 53:1 281:1 348:2 
0.2567796888057864 0:1 5:1 26:1 57:1 350:1 
0.1032485751972889 0:1 57:1 277:1 352:1 353:1 
0.3 0:1 57:1 154:1 
0.3 0:1 2:1 5:1 7:1 11:1 15:1 17:1 26:1 31:1 43:1 
0.196673145965765 0:1 4:1 53:1 370:1 371:1 
0.1959641720791197 0:1 13:1 37:1 57:1 230:1 321:1 386:1 387:1 388:1 
0.1957588202055967 0:1 2:1 6:1 57:1 64:1 360:1 390:1 391:1 
0.1380125628500201 0:1 2:1 13:1 17:1 20:1 30:1 43:1 50:1 75:1 79:1 85:1 90:1 122:1 136:1 151:1 168:1 170:1 206:1 276:1 328:1 392:1 393:1 394:1 395:1 
0.0851751060470953 0:1 1:1 2:2 7:1 11:1 97:1 173:1 185:1 231:1 398:1 
0.09006231862943287 0:1 17:1 75:1 85:1 90:1 133:1 343:1 410:1 411:1 412:1 
0.06754754226481245 0:1 17:1 20:1 90:1 277:1 429:2 430:1 431:1 432:1 
0.3 0:1 50:1 53:1 394:1 434:1 
0.08446571613031138 0:1 11:1 13:2 17:2 19:1 34:1 53:3 57:2 75:2 85:1 88:2 97:2 173:1 190:1 231:2 385:1 435:1 436:2 437:1 438:1 
0.233555452677596 0:1 2:1 57:1 87:1 188:1 
0.2297080104535926 0:1 2:1 17:1 50:1 108:1 133:1 161:1 521:1 522:1 
0.3 0:1 2:1 85:1 184:1 394:1 
0.1544990511420402 0:1 7:1 11:1 17:1 20:1 50:1 75:1 166:1 318:1 526:1 
0.3 0:1 2:1 7:1 13:2 79:1 88:1 
0.174664149116982 0:1 4:1 53:1 106:1 122:1 168:1 183:1 530:1 531:1 
0.250263066189276 0:1 4:1 17:1 34:1 122:1 532:1 533:1 534:1 535:2 
0.2471021498991586 0:1 2:3 4:1 5:1 11:2 13:1 17:1 40:1 53:1 68:1 85:1 106:1 151:1 181:1 187:1 200:1 201:1 221:1 305:1 473:1 476:1 551:1 552:2 553:1 554:1 555:1 556:1 557:1 558:1 559:1 560:1 
0.07035304332465857 0:1 2:1 13:1 37:1 68:1 133:1 152:1 585:1 586:1 587:1 
0.3 0:1 15:2 40:2 
0.3 0:1 1:1 7:1 
0.07280908638105961 0:1 2:1 11:1 17:2 20:1 26:1 34:3 36:1 48:1 68:1 75:1 85:3 93:1 100:1 172:1 199:1 298:1 419:1 547:1 570:1 622:1 623:1 624:1 625:1 626:1 
0.1710938312894034 0:1 53:1 85:1 642:1 
0.160184640923299 0:1 2:1 11:1 53:1 72:1 75:1 79:1 293:1 384:1 406:1 
0.3 0:1 53:3 87:1 188:1 648:1 
0.09551765164742837 0:1 2:1 117:1 652:1 
0.08828449654487344 0:1 2:1 11:2 34:2 48:1 65:1 190:1 278:1 295:1 298:1 311:1 376:1 657:1 658:1 
0.3 0:1 1:1 7:2 88:1 106:1 191:1 
0.06176313440674581 0:1 11:1 13:2 17:2 19:1 31:1 34:1 48:1 52:1 53:1 56:1 57:1 68:1 71:1 77:1 133:1 241:1 364:1 619:1 665:1 666:1 667:1 
0.3 0:1 57:1 277:1 
0.2070818027838713 0:1 2:3 11:1 13:3 17:2 20:1 24:1 26:1 27:2 37:1 40:1 48:1 50:3 68:1 72:1 75:1 85:3 90:1 163:1 248:1 253:1 366:1 670:1 671:1 672:1 673:1 674:1 675:1 676:1 677:1 678:1 679:1 
0.1176486721971462 0:1 1:1 7:1 11:1 13:2 17:1 19:1 20:1 34:3 40:1 48:3 50:3 52:1 53:2 54:1 77:1 85:2 97:2 106:1 133:1 154:2 168:1 172:1 199:1 231:2 241:1 328:1 384:1 409:1 647:1 657:1 686:1 687:1 688:1 689:1 690:1 
0.167909374081227 0:1 2:1 31:1 42:1 43:1 52:1 57:1 277:1 612:1 
0.3 0:1 13:1 717:1 
0.3 0:1 13:1 17:1 34:2 53:1 57:2 66:1 133:1 155:1 366:1 622:1 717:1 718:2 719:1 
0.3 0:1 1:2 13:1 17:1 19:1 20:1 40:1 52:1 53:2 90:1 133:2 651:1 720:1 721:1 
0.3 0:1 46:1 52:1 53:1 75:1 122:1 133:1 161:1 673:1 
0.3 0:1 1:1 48:1 53:2 65:1 123:1 271:1 
0.3 0:1 11:1 17:1 48:1 50:1 68:1 85:1 124:1 151:1 722:1 
0.03886709518621781 0:1 31:1 53:2 54:1 75:1 271:1 723:1 724:1 725:1 
0.3 0:1 17:1 34:1 48:1 53:1 57:1 68:1 75:1 124:1 176:1 207:1 412:1 727:1 
0.07521119831383379 0:1 2:1 11:1 15:1 20:1 31:1 34:2 43:1 57:1 68:1 85:2 134:1 167:1 305:1 353:1 412:1 498:1 591:1 596:1 728:1 
0.3 0:1 2:1 7:1 11:2 31:1 79:1 85:2 100:1 274:1 323:1 328:1 412:1 730:1 
0.3 0:1 7:1 34:1 48:1 54:1 57:1 68:1 176:1 380:1 
0.1119536835832967 0:1 2:1 7:2 11:2 13:1 20:1 31:1 68:1 85:2 88:1 123:1 133:1 161:1 173:1 190:1 206:1 241:1 261:1 287:1 288:1 349:1 366:1 375:1 447:1 478:1 731:1 732:1 
0.1301614542960004 0:1 2:2 11:2 13:2 17:2 20:3 27:1 34:3 48:2 50:2 62:1 68:1 85:1 133:3 151:1 190:1 230:1 271:1 295:1 366:1 376:2 426:1 427:1 476:1 561:2 737:1 738:1 
0.228192340500867 0:1 2:1 6:1 7:2 11:2 13:2 17:1 20:1 34:1 50:4 85:1 90:1 166:2 168:1 230:1 394:1 607:1 747:1 748:1 749:1 750:1 751:1 752:1 753:1 
0.2631875221287737 0:1 2:3 11:2 13:2 15:1 17:2 20:2 27:1 30:1 34:3 68:3 70:1 75:2 88:1 90:1 106:1 118:1 123:1 133:2 244:1 353:1 649:1 651:1 665:1 756:1 757:1 758:1 759:1 760:1 761:1 762:1 
0.06902517494002025 0:1 2:1 17:1 104:1 217:1 763:1 
0.3 0:1 13:1 15:1 57:1 68:1 75:1 
0.04322031119421355 0:1 57:1 318:1 
0.3 0:1 2:1 13:1 57:1 104:1 402:1 
0.3 0:1 1:1 57:1 
0.01558270561889891 0:1 2:2 17:5 19:1 20:1 27:1 34:1 48:1 57:2 62:1 65:2 68:2 75:2 79:1 84:1 85:2 90:1 118:1 131:1 133:3 276:1 280:2 318:1 352:2 384:1 412:1 498:1 591:1 778:1 779:1 780:1 781:1 782:1 783:1 
0.3 0:1 17:1 20:1 90:2 122:1 133:1 295:1 357:1 651:1 789:1 
0.2593531563074464 0:1 17:1 19:1 20:1 31:1 105:1 106:1 122:1 133:1 151:1 244:1 280:1 334:1 353:1 364:1 641:1 756:1 795:1 796:1 797:1 
0.3 0:1 13:1 15:1 17:2 34:1 40:1 90:1 122:1 123:1 133:1 151:1 364:1 799:1 800:1 801:1 
0.1172770633924605 0:1 2:3 7:1 11:4 17:2 19:1 20:2 31:1 34:1 48:4 54:1 68:2 75:1 79:1 85:2 88:1 106:2 133:1 173:2 190:1 199:1 208:1 215:1 228:1 293:1 303:1 366:3 376:1 419:1 478:1 584:1 591:1 703:1 711:1 731:1 779:1 805:1 806:1 807:1 808:1 809:1 
0.278832625168371 0:1 53:1 57:1 85:1 90:1 133:1 328:1 624:1 
0.0765695379512053 0:1 2:1 75:1 723:1 724:1 822:1 
0.04791231822019421 0:1 2:2 11:4 13:3 17:4 19:2 20:1 27:3 34:3 37:2 48:3 50:1 52:1 54:1 65:1 68:2 70:1 123:1 124:1 133:2 200:2 201:1 202:1 204:1 240:1 271:1 277:1 278:2 366:1 375:1 376:1 427:1 441:1 644:1 718:1 824:1 825:1 826:1 827:1 828:1 829:1 
0.3 0:1 1:1 13:1 133:1 409:1 721:1 
0.1111037948185647 0:1 2:2 11:1 24:1 75:1 85:1 230:1 295:1 349:1 391:1 847:1 
0.1297811016952781 0:1 2:1 11:2 50:1 75:1 85:2 106:1 123:1 124:1 295:1 349:1 391:1 419:1 462:1 847:1 848:1 849:1 850:1 
0.2679303583662841 0:1 2:3 11:1 13:1 20:1 26:1 37:1 43:1 48:1 50:2 68:1 79:2 85:1 90:1 106:1 118:1 167:1 241:1 305:1 408:1 656:1 836:1 862:1 863:1 864:1 865:1 
0.1587424984838989 0:1 2:3 11:2 13:1 17:2 19:2 31:1 34:1 48:1 50:2 52:1 68:1 75:1 77:1 85:1 106:1 248:1 277:1 295:1 297:1 366:1 462:2 482:1 584:1 900:1 901:1 902:1 903:1 904:1 905:1 
0.3 0:1 13:1 17:1 50:1 75:1 90:1 106:1 133:1 295:1 357:1 467:1 496:1 1736:1 1980:1 1981:1 
0.3 0:1 1:1 53:2 85:1 773:1 1714:1 
0.3 0:1 1:1 2:2 19:1 37:1 75:1 88:1 277:1 556:1 1189:1 1597:1 
0.1430448340105748 0:1 17:1 75:1 85:1 133:1 134:1 384:2 513:1 697:1 811:1 1115:1 1992:1 1993:1 
0.04123580390948092 0:1 2:1 13:1 19:1 20:1 34:1 37:1 48:2 50:1 52:1 199:1 316:1 437:1 469:1 473:1 607:1 1995:1 1996:1 1997:1 
0.178167121398592 0:1 2:1 11:1 13:2 34:1 40:1 106:1 133:1 170:1 216:1 230:1 681:1 804:1 1937:1 2004:1 2005:1 
0.08059707469192703 0:1 2:1 11:1 13:2 34:2 40:1 48:1 90:1 133:1 151:1 199:1 804:1 1925:1 1932:1 1933:1 2014:1 2015:1 2016:1 2017:1 2018:1 
0.07375648737128301 0:1 2:1 7:1 13:2 17:1 20:1 26:1 34:1 62:1 85:1 90:1 106:1 205:1 366:1 380:1 409:1 419:1 445:1 1212:1 1987:1 2020:1 2021:1 2022:1 2023:1 
0.1569413211358441 0:1 1:1 2:1 11:3 13:3 17:1 19:1 20:1 34:1 37:1 48:1 50:1 56:1 106:1 133:2 168:1 364:1 366:1 418:1 518:1 544:1 1174:1 1263:1 1637:1 1818:1 1946:1 1987:1 2047:1 2048:1 2049:1 2050:1 
0.2319120328033864 0:1 2:2 34:1 37:1 40:1 48:3 64:1 85:1 90:2 165:1 231:1 353:1 404:1 479:1 556:1 625:1 716:1 811:1 912:1 1734:1 1932:1 2025:1 2057:1 2058:1 
0.07356600964870408 0:1 2:1 50:1 53:3 90:1 106:2 116:1 231:1 479:1 1714:2 2051:1 2064:1 2065:1 2066:1 
0.3 0:1 48:1 53:2 75:1 85:2 105:1 348:1 1594:1 1714:1 1725:1 
0.3 0:1 37:1 48:1 53:2 189:1 295:1 419:1 541:1 856:1 1714:1 1968:1 1987:1 
0.3 0:1 1:1 53:2 556:1 1714:1 
0.3 0:1 1244:1 
0.3 0:1 2:2 11:1 13:1 20:1 31:1 37:1 43:1 48:2 50:1 56:1 62:1 88:2 128:1 133:1 161:1 200:1 201:1 232:1 366:1 406:1 617:1 912:1 1750:1 2075:1 
0.2072873232794678 0:1 2:1 20:1 27:2 37:2 202:1 277:1 571:2 
0.2605513379736775 0:1 11:2 13:2 17:1 19:1 20:1 34:2 40:1 48:1 50:1 85:1 151:1 167:1 189:1 200:1 201:1 713:1 1288:1 1736:1 2090:1 2091:1 2092:1 2093:1 
0.08754055328614778 0:1 17:1 27:1 65:1 75:1 105:1 133:2 166:1 672:1 1070:1 2095:1 2096:1 
0.04175430581802018 0:1 2:2 11:1 13:1 17:1 19:1 34:1 43:1 48:2 79:2 85:1 90:1 105:1 106:1 205:1 679:1 823:1 872:1 1725:1 1736:1 2100:1 
0.3 0:1 2:2 13:1 34:2 37:1 48:2 62:1 133:1 278:1 396:1 463:1 479:1 607:1 704:1 712:1 750:1 1174:1 1347:1 1849:1 
0.1151693783642796 0:1 2:2 11:1 17:1 19:1 31:1 34:1 48:1 88:1 106:2 163:1 200:1 278:1 349:1 353:1 384:1 391:1 424:1 583:1 691:1 699:1 1174:1 1276:1 2105:1 2106:1 2107:1 2108:1 
0.3 0:1 13:2 17:1 19:1 20:1 34:1 75:1 106:1 114:1 133:1 364:1 467:1 691:1 696:1 1081:1 1788:1 2112:1 
0.1285408530611582 0:1 2:2 11:1 27:1 34:2 85:1 90:1 106:1 200:1 201:1 205:1 366:1 384:1 635:1 662:1 691:1 993:1 1571:1 1903:1 2113:1 2114:1 2115:1 
0.3 0:1 1:1 168:1 1189:1 
0.2631221543661055 0:1 1:1 2:3 11:1 17:1 19:1 27:1 34:2 37:1 57:2 75:1 90:1 106:2 189:1 217:1 244:1 268:1 278:1 298:1 353:1 607:1 691:1 715:1 1000:1 1028:1 1114:1 1240:1 1736:1 1987:1 2116:1 2117:1 2118:1 
0.3 0:1 2:3 11:1 13:1 25:1 27:2 34:2 133:1 161:1 419:1 556:1 691:1 727:1 955:1 956:1 1645:1 2111:1 
0.3 0:1 1:1 2:1 11:1 13:1 50:1 75:1 419:1 1612:1 2052:1 
0.1398642803153358 0:1 2:2 20:1 27:1 34:1 48:1 65:1 75:1 85:1 173:1 330:1 540:1 1113:1 1959:1 2128:1 2129:1 
0.08144082517922899 0:1 2:3 11:2 37:2 65:1 75:1 85:1 90:1 131:1 133:1 186:1 199:1 232:1 243:1 584:1 591:1 681:1 1022:1 1048:1 1116:1 1551:1 2142:1 
0.1745507671585968 0:1 2:3 11:1 13:1 27:2 34:1 48:1 64:1 70:1 84:1 85:2 90:1 106:1 230:1 353:1 396:1 591:1 856:1 1114:1 1657:1 2153:1 2154:1 2155:1 2156:1 2157:1 2158:1 2159:1 
0.2502449723354403 0:1 2:1 11:1 20:1 43:1 48:1 50:1 106:1 437:1 470:1 804:1 1019:1 2168:1 2169:1 2170:1 
0.1849823001180859 0:1 2:1 50:1 77:1 86:1 90:1 100:1 231:1 795:1 997:1 1082:1 1879:1 
0.09946840680562581 0:1 2:2 11:2 13:2 19:1 20:1 90:1 106:1 110:2 114:1 133:1 215:1 366:1 1707:1 2174:1 2175:1 2176:1 2177:1 2178:1 2179:1 
0.05795819301621415 0:1 2:2 13:1 20:1 37:1 70:1 85:1 100:1 106:1 230:1 408:1 681:1 817:1 1026:1 1093:1 1878:1 2180:1 2181:1 2182:1 
0.1033386629433426 0:1 2:2 11:1 13:1 20:2 34:2 48:1 50:1 64:1 85:2 133:1 244:1 277:1 607:1 1115:1 1234:1 1328:1 1784:1 1987:1 1990:1 2145:1 2183:1 2184:1 2185:1 
0.01644045098271883 0:1 2:2 11:2 34:1 37:1 43:1 48:1 50:1 106:2 151:1 190:1 293:1 366:1 379:1 1621:1 2061:1 2187:1 2188:1 2189:1 2190:1 2191:1 2192:1 2193:1 
0.1000284397644164 0:1 2:2 13:2 20:1 40:1 88:2 90:1 106:1 133:1 267:1 2064:1 2208:1 2209:1 2210:1 2211:1 
0.1547505007177359 0:1 13:1 17:1 20:1 25:1 27:1 36:1 40:1 88:1 151:1 955:1 956:1 1116:1 1987:1 2213:1 
0.3 0:1 2:1 11:1 17:1 34:1 48:2 50:1 90:1 106:2 116:1 366:1 408:1 556:1 1175:1 1272:1 1316:1 1571:1 1597:1 1657:1 1736:1 1768:1 1888:1 2087:1 2221:1 
0.1212396740031357 0:1 2:2 11:1 19:1 31:1 34:2 37:1 70:1 106:1 133:1 330:1 348:1 349:1 418:1 473:1 544:1 606:1 1048:1 1191:1 1219:1 1598:1 
0.3 0:1 1:1 2:1 11:2 13:2 17:1 27:1 48:1 50:1 79:1 133:1 230:1 523:1 556:1 721:1 1736:1 2081:1 2234:1 2235:1 
0.09766915691434506 0:1 2:2 11:1 26:1 48:3 106:1 349:1 353:1 384:1 438:1 513:1 713:1 974:1 1114:1 1280:1 1826:1 2242:1 2243:1 2244:1 2245:1 2246:1 
0.08716810706804518 0:1 2:1 11:2 13:1 17:1 43:1 48:1 85:1 106:1 133:1 205:1 295:1 357:1 366:1 579:1 974:1 1178:1 1422:1 2112:1 2247:1 2248:1 2249:1 
0.3 0:1 1:1 2:1 7:1 11:2 20:1 36:1 48:1 85:1 100:1 128:1 277:1 914:1 1189:1 1424:1 
0.06394758950315703 0:1 1:1 2:1 7:1 13:1 48:1 173:1 454:1 839:1 974:1 1262:1 1424:1 2280:1 
0.0269958138504863 0:1 2:1 5:1 48:1 50:1 85:1 86:1 106:1 437:1 1936:1 2274:1 2302:1 2305:1 2306:1 2307:1 2308:1 
0.1024802392589074 0:1 1:1 2:2 11:2 13:1 17:1 26:1 34:2 70:1 199:1 200:1 201:1 438:1 466:1 512:1 974:1 1313:1 1778:1 2377:1 
0.2174178255438582 0:1 2:1 11:1 13:1 19:1 34:1 48:1 230:1 279:1 288:1 607:1 686:1 1303:1 1721:1 2274:1 2284:1 2378:1 2379:1 
0.1672166664294565 0:1 2:1 7:1 11:1 20:1 48:1 85:2 100:1 166:1 277:1 278:1 863:1 1290:1 1585:1 1761:1 2380:1 2381:1 
0.1355978146244687 0:1 2:1 11:1 13:2 17:1 19:1 27:1 34:1 48:2 50:1 106:1 133:1 200:1 201:1 279:1 617:1 1990:1 2000:1 2192:1 2322:1 2382:1 2383:1 2384:1 2385:1 2386:1 
0.07743716120267927 0:1 2:1 13:1 65:1 90:1 133:1 295:1 357:1 727:1 1501:1 2111:1 
0.3 0:1 1:1 2:1 13:1 19:1 34:2 48:1 70:1 106:1 133:1 200:1 201:1 215:1 473:1 623:1 660:1 712:1 1256:1 
0.174064331595413 0:1 2:1 13:1 17:1 48:1 168:1 177:2 199:1 200:1 201:1 1514:1 1736:1 1739:1 
0.05940433345399886 0:1 2:2 11:1 13:2 17:3 19:1 20:1 48:2 50:1 53:1 85:1 189:1 230:1 713:1 786:1 974:1 1288:1 1347:1 2280:1 2321:1 2390:1 2392:1 2393:1 
0.2655216882460398 0:1 25:1 955:1 956:1 1200:1 1514:1 1988:1 2394:1 
0.3 0:1 102:1 106:1 244:1 419:1 811:1 982:1 1182:1 1976:1 
0.03530815752924771 0:1 1:1 2:2 11:3 20:1 27:1 31:2 34:1 43:1 48:1 50:3 60:1 72:1 85:2 93:1 106:1 121:1 163:1 207:1 244:1 346:1 357:1 366:1 1069:1 1140:1 1569:1 1791:1 2149:1 2336:1 2406:1 2407:1 2408:1 2409:1 2410:1 2411:1 2412:1 2413:1 2414:1 
0.1927441936112608 0:1 1:1 2:2 11:1 13:1 20:1 31:1 34:2 48:1 85:2 106:1 133:1 161:1 167:1 200:1 201:1 232:1 974:1 1200:1 1424:1 1920:1 2290:1 2416:1 2417:1 2418:1 
0.09981467057412199 0:1 1:1 2:3 11:2 13:1 20:1 26:1 27:2 34:3 37:1 48:3 50:1 52:1 79:1 85:2 90:1 151:1 232:1 438:1 456:1 579:1 898:1 974:1 1189:1 1200:1 1791:1 2000:1 2268:1 2397:1 2402:1 2424:1 2425:1 2426:1 2427:1 2428:1 2429:1 2430:1 2431:1 
0.07609533093417047 0:1 1:1 2:4 11:5 20:1 27:2 34:2 37:1 50:2 77:1 84:1 85:1 86:1 106:2 121:1 133:1 168:1 230:1 288:1 406:1 419:1 456:1 982:1 1182:1 1200:1 1277:1 1657:1 1736:1 1791:1 1925:1 1929:1 2231:1 2268:1 2432:1 2433:1 2434:1 2435:1 2436:1 
0.07854010820224415 0:1 2:1 5:1 13:1 34:1 37:1 48:1 85:1 106:1 133:1 216:1 244:1 388:1 473:1 974:1 2113:1 2453:1 2454:1 2455:1 
0.1052362945701033 0:1 2:2 11:1 13:1 20:1 34:2 40:1 48:1 70:1 84:1 85:1 168:2 205:1 316:1 349:2 408:1 681:1 2316:1 2348:1 2448:1 2456:1 2457:1 2458:1 2459:1 2460:1 
0.02802060289225754 0:1 2:2 5:1 13:1 27:1 34:2 37:1 48:2 50:2 149:1 308:1 966:1 1239:1 1347:1 1545:1 2013:1 2120:1 2122:1 2487:1 2488:1 2489:1 2490:1 
0.05908112231878972 0:1 2:2 27:1 34:2 48:1 70:1 88:1 90:1 106:1 114:1 134:1 349:1 437:1 622:1 866:1 1264:1 2318:1 2382:1 2492:1 2493:1 2494:1 
0.06666127476271677 0:1 2:2 11:2 19:1 20:1 27:1 50:1 84:1 85:1 93:1 106:1 177:1 295:1 349:1 396:1 658:1 1239:1 1736:1 1879:1 2499:1 2500:1 
0.3 0:1 2:2 7:1 11:1 48:2 52:1 88:1 128:1 207:1 244:1 278:1 295:1 366:1 694:1 912:1 1585:1 1726:1 2315:1 2354:1 2420:1 2503:1 2504:1 
0.1314340822888119 0:1 20:1 27:1 34:1 85:1 100:1 133:1 839:1 1726:1 2522:1 
0.3 0:1 2:2 11:1 13:1 19:1 37:1 349:2 419:1 422:1 1315:1 1736:1 2525:1 2526:1 2527:1 
0.005267822378527125 0:1 1:1 2:3 11:1 13:1 20:1 25:1 26:1 34:2 37:3 48:1 50:2 72:1 85:1 106:1 128:1 133:1 149:1 230:1 346:1 438:1 479:1 649:1 836:1 867:1 914:1 955:1 956:1 1276:1 1925:1 2334:1 2335:1 2402:1 2528:1 
0.3 0:1 1:1 2:2 7:1 13:1 20:1 34:1 48:2 79:1 85:1 230:1 786:1 974:1 1189:1 2145:1 2402:1 2532:1 2533:1 
0.1410437887159228 0:1 2:1 13:2 37:1 53:1 54:1 65:1 88:1 106:1 133:1 161:1 230:1 353:1 524:1 1114:1 1200:1 1288:2 2402:1 2481:1 2534:1 
0.3 0:1 1911:1 
0.2454867005176211 0:1 1:1 2:1 11:1 26:1 34:1 43:1 48:1 152:1 625:1 913:1 1189:1 1936:1 2000:1 2402:1 2542:1 
0.03572453443254368 0:1 1:1 2:1 7:1 11:1 34:2 48:1 50:1 70:1 106:2 230:1 291:1 349:1 693:1 1086:1 1288:1 1424:1 1572:1 1888:1 2405:1 2543:1 2544:1 
0.2364387377507075 0:1 2:1 11:2 13:1 48:3 88:1 228:1 278:1 349:1 609:1 867:1 1140:1 1280:1 2374:1 2547:1 2548:1 
0.3 0:1 1:1 
0.06259155780212082 0:1 2:1 11:2 13:2 34:1 151:1 380:1 609:1 617:1 872:1 974:1 1976:1 2558:1 
0.04081462011398757 0:1 2:1 11:1 13:1 16:1 133:1 339:1 681:1 772:1 1093:1 1821:1 1892:1 
0.125335850883018 0:1 13:1 106:1 151:1 787:1 2577:1 2578:1 2579:1 
0.199633995492307 0:1 17:1 50:1 62:1 118:1 122:1 151:1 508:1 2584:1 
0.04642925398103331 0:1 11:2 13:1 31:2 56:1 68:1 230:1 540:1 656:1 
0.1021006868462828 0:1 2:1 15:1 85:1 305:1 321:1 357:1 1034:1 1710:1 2591:1 
0.3 0:1 13:1 17:1 34:1 36:1 50:1 122:1 199:1 244:1 815:1 856:1 1013:1 1702:1 2593:1 
0.1500953507421273 0:1 13:1 34:1 85:1 798:1 976:1 1738:1 2594:1 
0.3 0:1 13:1 68:1 231:1 1435:1 
0.147689801026578 0:1 1778:1 
0.02723327403145344 0:1 2:1 20:1 50:1 75:1 189:1 200:1 201:1 250:1 1079:1 1214:1 
0.3 0:1 413:1 
0.08284046603335689 0:1 11:1 13:1 37:1 43:1 85:1 266:1 1301:1 2169:1 2606:1 
0.08539964702857972 0:1 2:1 11:2 37:1 40:1 48:1 85:1 90:1 133:1 167:1 681:1 1328:1 2277:1 2612:1 2613:1 2614:1 
0.05798622945918671 0:1 2:1 13:2 34:1 40:1 50:1 84:1 85:1 133:1 163:1 681:1 731:1 1937:1 2615:1 2616:1 
0.08774353203941966 0:1 2:1 11:1 15:1 37:1 43:1 85:1 90:1 106:1 122:1 199:1 230:1 353:1 437:1 470:1 665:1 727:1 2623:1 2624:1 
0.3 0:1 13:1 17:1 85:1 122:1 205:1 380:1 408:1 502:1 732:1 979:1 2628:1 
0.3 0:1 17:2 30:1 48:1 122:1 133:1 151:1 173:1 277:1 327:1 713:1 1255:1 1292:1 1977:1 
0.03155050685635565 0:1 2:1 11:3 17:1 34:1 62:1 70:1 75:1 88:1 106:2 133:1 151:1 245:1 246:1 277:1 349:1 2024:1 2458:1 
0.07481933008193475 0:1 2:1 11:2 48:1 106:1 114:1 199:1 353:1 827:1 1254:1 2632:1 
0.05754180513364079 0:1 2:2 11:2 13:1 27:1 34:1 37:1 75:1 85:1 114:1 151:1 167:1 298:1 349:1 686:1 1621:1 2443:1 2499:1 2633:1 2634:1 
0.07649528719175887 0:1 2:1 26:1 151:1 349:1 409:1 846:1 1136:1 
0.116723968777831 0:1 2:1 13:1 17:2 19:1 20:1 40:1 52:1 68:1 75:1 85:2 97:1 106:1 205:1 277:1 508:1 547:1 617:1 1156:1 1597:1 1816:1 
0.05025188480993771 0:1 2:2 26:1 43:1 85:2 88:1 161:1 200:1 201:1 263:1 357:1 767:1 814:1 1659:1 1874:1 2327:1 2635:1 2636:1 2637:1 
0.3 0:1 2:1 5:1 11:1 13:1 85:1 90:1 122:1 150:1 471:1 478:1 846:1 1217:1 
0.2114890973269826 0:1 2:1 13:1 151:1 184:1 617:1 659:1 2638:1 
0.3 0:1 27:1 122:1 167:1 173:1 2649:1 2650:1 
0.07052472803331358 0:1 2:1 48:1 50:2 85:2 86:1 100:1 122:1 133:1 161:1 177:1 267:1 278:1 346:1 349:1 410:1 418:1 544:1 976:1 1235:1 2593:1 2651:1 
0.113801763607272 0:1 2:1 11:1 13:1 31:1 34:1 85:1 133:1 277:1 343:1 1134:1 2608:1 2659:1 2660:1 
0.08138065386410336 0:1 2:1 27:1 34:1 40:2 70:1 85:1 90:1 106:1 133:1 177:1 205:1 295:1 346:1 349:1 584:1 713:1 727:1 795:1 811:1 2180:1 2664:1 2665:1 2666:1 
0.1158829267408086 0:1 418:1 2668:1 
0.0595936859111752 0:1 17:1 75:1 133:1 165:1 1292:1 
0.3 0:1 17:2 48:1 75:1 85:1 105:1 122:1 205:1 366:1 508:1 1817:1 2670:1 
0.3 0:1 75:1 122:1 133:1 136:1 719:1 2671:1 
0.2122564679605803 0:1 11:1 13:1 17:1 19:1 34:1 48:1 90:1 122:1 267:1 300:1 364:1 623:1 1024:1 1444:1 2672:1 2673:1 
0.249739114154172 0:1 11:1 34:1 48:1 68:1 90:1 133:1 151:1 718:1 1268:1 1720:1 
0.3 0:1 7:2 166:1 295:1 536:1 541:1 1968:1 
0.3 0:1 85:2 1869:1 
0.3 0:1 50:1 122:1 151:1 2674:1 
0.1820708067565198 0:1 2:1 7:1 11:1 26:1 68:1 106:1 173:1 321:1 330:1 409:1 1174:1 2121:1 2678:1 2679:1 
0.2098574295061652 0:1 13:1 75:1 288:1 357:1 898:1 909:1 1134:1 2681:1 
0.3 0:1 34:1 122:1 798:1 976:1 
0.08525924220395628 0:1 2:1 7:1 37:1 52:1 161:1 295:1 1352:1 1710:1 2683:1 2684:1 
0.3 0:1 11:1 17:1 88:1 106:1 151:1 277:1 976:1 1275:1 
0.0970164124798861 0:1 2:1 17:2 42:2 48:1 50:1 75:1 85:1 118:1 170:1 171:1 172:1 321:1 366:1 508:2 
0.3 0:1 53:2 2675:1 
0.3 0:1 2:2 5:1 11:1 13:1 17:1 20:1 75:1 85:1 90:1 118:1 122:1 133:2 161:1 173:1 190:1 224:1 349:1 1095:1 1188:1 2201:1 2686:1 
0.1532202771327881 0:1 2:1 26:1 1330:1 1698:1 1874:1 
0.3 0:1 11:1 13:1 57:2 68:1 1621:1 
0.2225148411586088 0:1 50:1 85:1 86:1 190:1 205:1 261:1 366:1 795:1 1851:1 
0.05798532466111916 0:1 2:1 11:2 13:1 17:1 20:1 27:1 37:1 50:1 75:1 85:1 90:1 133:1 161:1 173:1 205:1 241:1 266:1 330:1 419:1 561:1 779:1 1037:1 1039:1 1041:1 1096:1 2689:1 
0.2386268054982715 0:1 2:1 11:3 17:1 37:1 48:2 50:1 62:1 85:1 122:1 133:2 161:1 168:1 244:1 292:1 375:1 380:1 391:1 523:1 1093:1 1318:1 1433:1 1711:1 2210:1 2236:1 2694:1 2695:1 
0.2535708787599052 0:1 2:1 7:2 11:3 13:1 34:2 36:1 48:2 50:1 85:1 97:1 171:2 291:2 466:1 976:1 1188:1 1352:1 1597:1 2696:2 2697:1 
0.05461865764858664 0:1 2:1 11:1 17:2 34:2 37:1 40:1 48:1 50:1 62:1 85:1 110:1 133:1 151:1 278:1 282:1 385:1 419:1 561:1 606:1 735:1 976:1 1048:1 1166:1 1711:1 2426:1 2698:1 2699:1 
0.3 0:1 2:1 13:1 17:1 75:1 85:1 90:1 122:1 133:1 151:1 339:1 377:1 465:1 565:1 2700:1 2701:1 
0.2567493778907568 0:1 13:1 17:1 48:1 63:1 67:1 71:1 75:1 316:1 2042:1 2607:1 2702:1 
0.3 0:1 11:1 13:1 17:1 34:1 50:1 75:1 84:1 118:1 122:1 133:1 161:1 177:1 188:1 250:1 1079:1 1731:1 1736:1 1807:1 
0.1069146530529893 0:1 2:1 11:2 17:2 27:1 34:1 50:1 56:1 57:1 77:1 85:1 151:1 277:1 935:1 936:1 976:1 1083:1 2112:1 
0.04709052777001281 0:1 7:1 11:1 13:1 151:1 190:1 241:1 330:1 346:1 375:1 651:1 677:1 1255:1 1514:1 2704:1 2705:1 2706:1 
0.1078341277211283 0:1 2:1 11:2 13:1 17:1 20:1 26:1 40:1 64:1 85:1 90:2 106:1 107:1 133:1 244:1 271:1 282:1 349:1 438:1 787:1 997:1 1128:1 1440:1 2707:1 2708:1 
0.3 0:1 151:1 165:1 
0.3 0:1 50:1 122:1 1072:1 
0.1641006926252334 0:1 2:1 13:1 17:1 19:1 20:1 27:1 34:1 36:1 48:1 50:2 57:3 72:1 85:1 112:1 122:1 132:1 190:1 199:1 244:1 267:1 364:1 607:1 627:1 732:1 1438:1 1738:1 2009:1 2710:1 2711:1 
0.1167164450070813 0:1 17:1 50:1 75:1 133:1 151:1 190:1 288:1 385:1 428:1 1425:1 1440:1 
0.3 0:1 17:1 27:1 34:1 37:2 48:1 97:1 122:1 133:2 188:1 250:1 277:1 587:1 667:1 1079:1 1320:1 1597:1 
0.3 0:1 2:1 13:1 20:1 122:1 133:1 168:1 267:1 406:1 911:1 977:1 1290:1 1501:1 1737:1 2712:1 2713:1 2714:1 
0.03942847125941482 0:1 20:2 34:1 85:2 145:1 353:1 502:1 716:1 798:1 2715:1 2716:1 
0.3 0:1 2:1 26:1 97:1 1189:1 1698:1 1874:1 
0.3 0:1 2:1 11:1 57:2 68:1 75:1 122:1 133:1 161:1 437:1 1140:1 2721:1 
0.2316344534959114 0:1 2:3 14:1 20:2 27:3 34:1 85:4 90:2 133:1 173:1 208:1 366:1 598:1 764:1 1059:1 1093:1 1104:1 1143:1 1307:1 1725:1 2722:1 
0.3 0:1 15:1 17:1 65:1 75:1 122:1 133:1 161:1 200:1 201:1 437:1 
0.01274935709045236 0:1 2:2 13:2 15:1 17:2 19:1 26:1 31:2 37:2 40:1 43:1 52:1 75:1 79:1 85:1 133:1 161:1 189:2 194:1 266:1 384:1 437:1 484:1 1011:1 2365:1 2724:1 2725:1 2726:1 2727:1 
0.1216382397113759 0:1 2:2 11:2 17:1 37:1 68:1 75:1 90:1 97:1 200:1 201:1 256:1 278:1 455:1 1189:1 2732:1 2733:1 2734:1 2735:1 
0.3 0:1 2:1 13:1 17:1 50:1 75:1 90:1 122:2 136:2 1072:1 1936:1 2736:1 2737:1 2738:1 
0.3 0:1 17:1 31:1 57:1 65:1 90:1 106:1 284:1 412:1 469:1 518:1 1133:1 1150:1 2739:1 
0.08319009566904353 0:1 2:1 68:1 133:1 161:1 437:1 1059:1 
0.1042411797944033 0:1 6:1 390:1 391:1 
0.1987620935679006 0:1 2:1 11:1 53:1 57:1 75:1 85:1 122:1 170:1 267:1 372:1 427:1 860:1 1060:1 1416:1 2740:1 
0.3 0:1 53:2 2675:1 
0.249027681705432 0:1 2:2 11:1 50:1 62:1 75:1 97:1 122:1 136:1 246:1 330:1 373:1 665:1 1189:1 1587:1 2742:1 
0.2090110045616988 0:1 2:2 11:1 13:1 34:3 37:1 85:3 97:1 106:1 133:1 151:1 167:1 348:1 357:1 758:1 1057:1 1189:1 1191:1 1219:1 1235:1 2017:1 2743:1 
0.3 0:1 53:1 2747:1 
0.169363724365189 0:1 2:1 7:1 11:2 13:1 34:1 97:1 133:1 190:1 955:1 1710:1 2749:1 2750:1 2751:1 
0.1871702090944255 0:1 2:1 48:1 53:1 106:1 133:2 161:1 199:1 215:1 244:1 455:1 830:1 1174:1 1368:1 
0.3 0:1 2:1 27:2 53:1 57:1 68:1 976:1 
0.2988121681718122 0:1 2:2 11:2 13:1 34:2 37:2 70:1 75:1 90:1 349:1 665:1 757:1 976:1 1200:1 1236:1 1277:1 1281:1 1764:1 
0.3 0:1 2:1 13:1 48:1 70:1 277:1 282:1 353:1 408:1 790:1 976:2 1936:1 2314:1 2753:1 
0.3 0:1 2:2 17:1 34:2 48:1 65:1 84:1 85:1 122:1 133:1 161:1 168:1 199:1 408:1 437:1 473:1 617:1 830:1 1026:1 1238:1 1280:1 2554:1 2754:1 2755:1 2756:1 2757:1 
0.1400897405438237 0:1 2:1 11:2 13:1 17:2 34:2 48:1 52:1 68:1 70:1 75:1 106:1 124:1 133:1 161:1 866:3 976:2 1277:1 1318:1 1768:1 
0.3 0:1 11:1 34:1 50:1 57:1 84:1 85:2 122:1 1155:1 1791:1 2761:1 2762:1 2763:1 2764:1 
0.3 0:1 2:1 11:3 34:1 48:1 50:1 57:1 77:1 80:1 85:1 97:1 151:1 713:1 829:1 1277:1 1597:1 1791:1 2765:1 
0.2463463509014935 0:1 2:3 11:1 13:1 34:2 48:2 50:1 68:1 75:1 85:1 106:1 121:1 124:1 133:1 215:1 217:1 394:1 758:1 866:1 1888:1 2374:1 2399:1 2766:1 2767:1 
0.3 0:1 1:1 7:1 57:2 97:1 190:1 955:1 
-0.3 0:1 17:1 20:1 25:1 42:1 552:1 955:1 956:1 1116:1 1646:1 
-0.3 0:1 2:1 11:2 75:1 527:1 1705:1 1706:1 1707:1 
-0.3 0:1 50:1 85:1 122:1 394:1 1708:1 
-0.3 0:1 2:2 17:2 20:1 30:1 34:1 50:1 85:1 90:1 106:1 321:1 391:1 496:1 533:1 587:1 949:1 951:1 970:1 1014:1 1207:1 1709:1 1710:1 
-0.3 0:1 2:1 11:1 17:1 20:1 34:1 40:1 295:1 370:1 408:1 552:1 1116:1 1199:1 1711:1 1712:1 
-0.3 0:1 1:1 11:1 17:1 75:1 97:1 106:1 151:1 473:1 949:1 1006:1 1189:1 1199:1 1713:1 
-0.3 0:1 7:1 85:2 443:1 730:1 949:1 951:1 1709:1 1714:1 
-0.3 0:1 11:1 40:1 50:1 185:1 925:1 1715:1 
-0.3 0:1 75:1 151:1 153:1 
-0.3 0:1 15:1 25:1 90:1 122:1 956:1 
-0.3 0:1 7:1 79:1 1710:1 
-0.3 0:1 1:1 2:2 7:2 11:1 13:1 17:1 20:1 34:1 37:1 48:1 60:1 106:1 173:1 375:1 388:1 540:1 656:1 958:1 1189:1 1569:1 1713:1 1714:1 1716:1 
-0.3 0:1 7:1 310:1 
-0.3 0:1 2:2 13:1 17:1 19:1 26:1 34:2 37:1 65:1 88:1 106:1 133:1 151:1 202:1 244:1 277:1 307:1 349:1 375:1 419:1 603:1 715:1 718:1 1667:1 
-0.3 0:1 2:1 34:1 48:1 70:1 349:1 1277:1 1717:1 1718:1 
-0.3 0:1 1:1 2:2 11:1 13:1 15:1 17:1 27:1 90:1 100:1 353:1 419:1 476:1 716:1 1048:1 1189:1 1713:1 1719:1 
-0.3 0:1 40:1 85:1 214:1 1720:1 
-0.3 0:1 13:1 34:1 721:1 1713:1 1721:1 
-0.3 0:1 277:1 
-0.3 0:1 34:1 412:1 686:1 
-0.3 0:1 11:1 13:1 57:2 68:1 106:2 114:1 323:1 
-0.3 0:1 2:1 13:1 122:1 133:1 230:1 1290:1 1722:1 
-0.3 0:1 1:1 2:1 19:1 20:1 27:1 34:1 37:1 48:1 50:1 88:1 106:1 214:1 278:1 758:1 903:1 1019:1 1189:1 1723:1 1724:1 1725:1 1726:1 1727:1 
-0.3 0:1 2:1 7:2 11:1 27:1 34:1 70:1 90:1 166:1 200:1 201:1 278:1 1290:1 1713:1 1714:1 
-0.3 0:1 2:1 7:1 11:1 173:1 312:1 380:1 1087:1 
-0.3 0:1 2:1 15:1 17:1 34:1 64:1 106:1 122:1 133:1 173:1 244:2 737:1 1276:1 1728:1 
-0.3 0:1 2:1 17:1 27:1 85:1 106:1 136:1 321:1 324:1 1014:1 1105:1 1729:1 
-0.3 0:1 11:2 15:1 17:1 34:1 75:1 269:1 353:1 366:1 1114:1 1713:2 1730:1 
-0.3 0:1 7:1 11:1 173:1 641:1 
-0.3 0:1 13:1 31:1 34:1 48:1 90:1 205:1 1669:1 1713:1 1731:1 1732:1 1733:1 
-0.3 0:1 13:1 20:1 34:1 48:1 85:1 200:1 201:1 205:1 295:1 541:1 1713:1 1734:1 
-0.3 0:1 1:1 2:1 17:1 75:1 87:1 1049:1 1189:1 1735:1 
-0.3 0:1 2:1 13:2 34:1 133:1 168:1 189:1 241:1 366:1 667:1 1736:1 1737:1 
-0.3 0:1 11:1 13:1 19:1 37:1 133:1 428:1 665:1 1019:1 1713:1 
-0.3 0:1 11:1 13:2 17:1 48:1 68:1 85:1 106:1 124:1 607:1 1713:1 1730:1 1738:1 1739:1 1740:1 
-0.3 0:1 11:1 13:1 122:1 230:1 278:1 295:1 541:1 1118:1 1741:1 
-0.3 0:1 2:1 17:1 161:1 173:1 349:1 353:1 394:1 412:1 1621:1 1742:1 
-0.3 0:1 2:1 11:2 13:2 37:1 100:1 106:1 155:1 199:1 202:1 204:1 241:1 364:1 
-0.3 0:1 57:2 650:1 688:1 
-0.3 0:1 768:1 
-0.3 0:1 13:1 122:1 133:1 230:1 1301:1 
-0.3 0:1 2:1 11:1 13:1 48:1 68:1 403:1 1743:1 
-0.3 0:1 2:1 20:1 50:1 122:1 124:1 151:1 1713:1 1744:1 
-0.3 0:1 2:1 17:1 34:2 70:1 75:1 85:1 190:1 200:1 201:1 349:1 727:1 815:1 846:1 1745:1 1746:1 
-0.3 0:1 7:1 52:1 
-0.3 0:1 2:1 11:2 13:2 17:2 34:1 65:1 75:1 124:1 133:1 200:1 201:1 277:1 364:1 437:1 712:1 1713:1 1747:1 1748:1 
-0.3 0:1 1:1 13:1 17:1 48:1 85:1 122:1 205:1 375:1 496:1 1189:1 1713:1 1749:1 
-0.3 0:1 2:2 5:2 17:1 27:1 48:1 65:1 66:1 68:1 106:1 133:2 208:1 406:1 912:1 1514:1 1713:1 1750:1 
-0.3 0:1 2:1 11:1 50:1 85:1 151:1 186:1 1728:1 1751:1 
-0.3 0:1 2:1 11:1 50:1 106:1 122:1 128:1 133:1 161:1 231:1 241:1 256:1 460:1 1435:1 
-0.3 0:1 2:2 11:1 13:2 17:1 50:2 62:2 68:1 84:1 106:1 128:1 295:1 346:1 357:1 366:1 621:1 914:1 1265:1 1713:1 
-0.3 0:1 13:1 17:1 20:1 133:1 151:1 277:1 418:1 1752:1 
-0.3 0:1 75:1 277:1 
-0.3 0:1 11:1 34:1 48:1 279:1 1315:1 1753:1 
-0.3 0:1 2:2 5:1 11:1 13:2 17:1 26:1 34:1 106:2 122:1 133:1 151:1 215:1 231:1 409:1 445:1 606:1 1007:1 1435:1 1754:1 1755:1 1756:1 1757:1 1758:1 1759:1 
-0.3 0:1 2:1 17:1 90:1 122:1 133:2 353:1 384:1 467:1 1177:1 1458:1 1760:1 1761:1 1762:1 
-0.3 0:1 2:1 11:2 13:2 34:1 90:1 456:1 1048:1 1514:1 1736:1 1763:1 1764:1 1765:1 1766:1 
-0.3 0:1 11:1 65:1 75:1 200:1 201:1 437:1 846:1 1767:1 
-0.3 0:1 2:1 11:1 13:1 34:1 48:1 50:1 68:1 90:1 124:1 189:1 473:1 607:1 713:1 750:1 846:1 
-0.3 0:1 11:4 17:1 27:1 34:1 75:1 90:1 133:1 208:1 375:1 665:1 712:2 757:1 1288:1 1768:1 
-0.3 0:1 2:2 11:1 13:1 19:1 27:3 34:1 84:2 85:2 88:1 122:1 133:1 208:1 349:1 408:1 467:1 1082:1 1769:1 
-0.3 0:1 2:1 13:1 17:2 19:1 75:1 85:1 122:1 231:1 277:2 279:1 284:1 366:1 385:1 999:1 1435:1 1770:1 
-0.3 0:1 13:1 1086:1 1488:1 1713:1 
-0.3 0:1 2:2 11:1 27:1 48:1 75:1 90:1 106:1 114:1 133:1 168:1 224:1 230:1 349:1 462:1 723:1 1488:1 1771:1 1772:1 
-0.3 0:1 13:1 57:2 1713:1 
-0.3 0:1 7:1 79:1 190:1 380:1 
-0.3 0:1 2:1 13:1 151:1 200:1 201:1 617:1 964:1 1773:1 
-0.3 0:1 2:1 13:2 20:1 34:2 48:1 50:1 70:1 168:2 638:1 898:1 1488:1 1774:1 1775:1 1776:1 1777:1 
-0.3 0:1 2:1 27:1 34:1 65:1 133:1 134:1 827:1 1778:1 1779:1 
-0.3 0:1 2:1 5:1 13:1 17:1 27:1 48:2 50:1 85:1 88:1 133:1 200:1 201:1 231:1 289:1 298:1 353:1 511:1 1435:1 1780:1 1781:1 1782:1 
-0.3 0:1 11:2 31:1 106:1 151:1 349:1 556:1 732:1 1597:1 
-0.3 0:1 2:1 13:1 20:3 27:2 48:1 68:1 131:1 133:3 428:2 738:1 1451:1 1641:1 
-0.3 0:1 2:1 11:1 13:1 85:1 298:1 349:1 510:1 556:1 1597:1 
-0.3 0:1 2:1 11:1 13:1 17:2 20:1 27:1 34:1 50:2 56:1 68:1 72:1 75:1 77:1 85:1 86:1 90:1 161:1 189:1 366:1 371:1 408:1 465:2 654:1 872:1 1713:1 1736:1 1783:1 1784:1 1785:1 
-0.3 0:1 2:2 11:1 13:1 17:1 27:1 31:1 37:1 48:1 50:1 62:1 85:3 90:1 122:1 133:1 166:1 167:1 315:1 391:1 394:1 419:1 1637:1 1783:1 1786:1 1787:1 1788:1 1789:1 1790:1 
-0.3 0:1 11:1 37:1 50:1 85:1 90:1 106:1 133:1 232:1 295:1 328:1 349:1 779:1 1791:1 1792:1 
-0.3 0:1 2:1 34:1 65:1 85:1 118:1 133:1 167:1 200:1 201:1 292:1 316:1 406:1 1265:1 1791:1 1793:1 
-0.3 0:1 2:2 11:1 13:1 19:1 34:1 37:1 40:1 48:1 77:1 189:1 190:1 290:1 349:1 609:1 866:1 1296:1 1315:1 1430:1 
-0.3 0:1 11:1 13:2 17:2 20:1 26:1 37:1 48:2 65:1 68:2 87:1 122:1 133:2 134:1 244:1 378:1 665:1 1127:1 1794:1 1795:1 1796:1 1797:1 
-0.3 0:1 17:1 34:1 48:1 50:1 122:1 151:1 168:1 391:1 1014:1 1200:1 1276:1 
-0.3 0:1 2:1 11:2 13:1 31:2 48:1 68:1 90:1 236:1 242:1 278:1 295:1 1276:1 1742:1 1798:1 1799:1 
-0.3 0:1 7:1 11:1 13:1 31:1 691:1 889:1 1645:1 1713:1 1714:1 
-0.3 0:1 2:1 166:1 786:1 1710:1 
-0.3 0:1 151:1 1800:1 
-0.3 0:1 11:2 13:1 17:1 31:1 79:1 99:1 100:1 168:1 863:1 898:1 1713:1 1728:1 1737:1 1801:1 
-0.3 0:1 2:1 7:1 13:1 37:1 48:1 50:1 75:1 85:1 118:1 122:1 133:1 151:1 161:1 385:1 391:1 465:1 847:1 1263:1 1713:1 1802:1 1803:1 1804:1 
-0.3 0:1 2:1 13:1 48:1 68:1 106:1 133:1 244:1 677:1 1805:1 1806:1 1807:1 
-0.3 0:1 2:1 34:1 36:1 48:1 473:1 1256:1 1713:1 1808:1 
-0.3 0:1 2:1 13:2 17:1 30:1 31:1 34:1 56:1 90:1 106:1 122:1 133:1 200:1 201:1 556:1 1597:1 1713:1 1781:1 1809:1 
-0.3 0:1 13:1 17:2 34:1 36:1 48:1 68:1 90:1 106:1 133:1 278:1 607:1 1713:1 1810:1 1811:1 1812:1 1813:1 1814:1 
-0.3 0:1 2:1 11:1 34:1 106:1 348:1 473:1 541:1 570:1 1191:1 1219:1 1256:1 1815:1 
-0.3 0:1 2:2 13:2 17:1 48:1 68:1 85:1 88:1 214:1 406:1 473:1 795:1 1210:1 1254:1 1256:1 1594:1 1816:1 1817:1 
-0.3 0:1 11:1 13:1 15:1 34:1 353:1 507:1 1114:1 1134:1 1713:1 
-0.3 0:1 2:1 11:2 13:1 31:1 129:1 152:1 166:1 1710:1 1713:1 
-0.3 0:1 13:1 17:1 31:1 34:1 37:1 48:1 50:1 75:1 106:1 122:1 202:1 288:1 380:1 385:1 556:1 607:1 1597:1 1818:1 
-0.3 0:1 2:1 17:1 20:1 48:1 68:1 90:1 106:1 133:1 244:1 278:1 677:1 1819:1 
-0.3 0:1 2:1 5:1 13:1 27:2 50:2 85:2 86:1 100:1 122:1 186:1 295:2 357:1 419:1 848:1 1246:1 1820:1 
-0.3 0:1 5:1 11:1 13:1 17:1 19:1 20:1 37:1 40:1 85:1 106:1 133:2 154:1 162:1 266:1 387:1 681:1 772:1 795:1 1821:1 1822:1 
-0.3 0:1 2:1 11:1 19:1 31:1 37:1 75:1 277:1 366:1 513:1 836:1 1572:1 1823:1 1824:1 
-0.3 0:1 13:1 17:1 19:1 20:1 34:2 40:1 48:1 50:1 52:1 90:1 114:1 122:1 133:1 349:1 513:1 663:1 1825:1 1826:1 
-0.3 0:1 2:1 13:1 20:1 27:1 34:1 48:1 50:1 64:1 70:1 77:1 85:2 86:1 106:2 328:1 506:1 556:1 901:1 912:1 1427:1 1597:1 1827:1 1828:1 1829:1 1830:1 
-0.3 0:1 2:1 11:3 17:1 46:1 48:1 75:1 85:2 88:1 90:1 106:1 133:1 154:1 161:1 205:1 244:1 289:1 295:1 437:1 513:1 603:1 711:1 795:1 1831:1 1832:1 1833:1 
-0.3 0:1 11:1 13:1 17:1 27:1 34:1 50:1 75:1 85:2 122:1 151:1 349:1 385:1 443:1 510:1 556:1 758:1 1597:1 
-0.3 0:1 13:2 17:1 20:1 34:1 37:1 48:2 65:1 75:1 85:1 133:1 1323:1 1713:1 1736:1 1786:1 1834:1 1835:1 1836:1 1837:1 
-0.3 0:1 2:2 13:1 19:1 26:1 40:1 48:2 50:1 54:1 65:1 133:1 190:1 261:1 355:1 428:1 582:1 799:1 815:1 855:1 1838:1 1839:1 
-0.3 0:1 2:1 40:1 57:2 118:1 133:1 151:1 161:1 282:1 418:1 681:1 1840:1 
-0.3 0:1 2:1 19:1 65:1 85:1 122:1 172:1 173:1 366:1 495:1 1841:1 
-0.3 0:1 2:1 11:2 13:1 473:1 1191:1 1219:1 1842:1 1843:1 1844:1 
-0.3 0:1 75:1 1586:1 
-0.3 0:1 11:1 13:1 17:1 50:1 122:1 185:1 349:1 366:1 815:1 1325:1 1845:1 
-0.3 0:1 2:1 11:1 27:1 34:1 48:1 50:1 79:1 90:1 112:1 122:1 133:1 163:1 244:1 759:1 1846:1 
-0.3 0:1 2:1 11:2 13:1 48:1 50:1 75:1 132:1 1174:1 1736:1 1847:1 1848:1 
-0.3 0:1 2:1 11:1 20:1 34:1 37:1 70:1 133:2 349:1 463:1 1271:1 1849:1 1850:1 
-0.3 0:1 2:1 11:2 17:1 19:1 40:1 48:1 90:1 106:1 133:2 199:1 207:1 326:1 366:1 584:1 795:1 815:1 1421:1 1851:1 
-0.3 0:1 2:1 11:1 17:1 20:1 27:1 37:1 75:1 118:1 133:1 288:1 419:1 699:1 815:1 856:1 1174:1 1849:1 1852:1 
-0.3 0:1 15:1 17:1 20:1 26:1 34:1 48:1 85:1 118:1 133:1 161:1 173:1 295:1 409:1 1621:1 1853:1 1854:1 
-0.3 0:1 7:1 11:2 31:1 106:1 441:1 655:1 773:1 811:1 
-0.3 0:1 2:1 75:1 122:1 830:1 976:1 
-0.3 0:1 11:2 17:2 24:1 31:1 36:1 48:1 85:1 133:1 186:1 207:2 366:1 773:1 1246:1 1713:1 
-0.3 0:1 1:1 2:1 11:1 13:1 48:1 75:1 85:1 277:1 394:1 1713:1 1855:1 1856:1 
-0.3 0:1 2:1 11:1 56:1 75:1 77:1 712:1 836:1 1722:1 
-0.3 0:1 2:1 17:1 75:1 87:1 122:1 190:1 1713:1 1857:1 1858:1 
-0.3 0:1 1:1 2:1 13:1 17:1 20:1 34:1 36:1 48:2 68:1 85:1 106:1 133:2 161:1 366:1 428:1 660:1 773:1 804:1 982:1 1051:1 1713:2 1859:1 
-0.3 0:1 2:1 13:1 48:1 68:1 90:1 133:1 165:1 215:1 244:1 563:1 830:1 1713:1 1860:1 
-0.3 0:1 1:1 2:1 48:1 244:1 364:1 909:1 1571:1 1737:1 1861:1 
-0.3 0:1 2:2 17:1 68:1 85:1 90:1 106:1 122:1 419:1 473:1 556:1 607:1 759:1 798:1 856:1 1000:1 1597:1 
-0.3 0:1 85:1 1862:1 
-0.3 0:1 2:3 13:2 20:1 34:1 48:1 85:2 237:1 277:1 375:1 384:1 394:1 658:1 871:1 1713:2 
-0.3 0:1 2:2 20:1 34:2 48:1 90:1 106:1 133:3 194:2 228:1 375:1 854:1 1479:1 1863:1 1864:1 
-0.3 0:1 11:1 27:1 34:1 48:1 85:1 261:1 295:1 349:1 388:1 656:1 1713:1 
-0.3 0:1 15:1 20:1 34:1 53:1 75:1 85:1 1853:1 
-0.3 0:1 2:2 11:1 34:1 48:2 53:1 88:2 106:1 133:1 190:1 205:1 207:1 295:1 353:1 1082:1 1713:1 1865:1 1866:1 
-0.3 0:1 11:1 13:1 20:1 26:1 37:1 48:1 50:1 53:1 70:1 85:1 166:1 295:1 864:1 1713:1 
-0.3 0:1 2:1 13:1 57:2 88:1 612:1 
-0.3 0:1 2:2 13:1 85:1 118:1 556:1 688:1 1597:1 
-0.3 0:1 85:1 688:1 
-0.3 0:1 1:1 53:1 
-0.3 0:1 2:1 11:1 13:1 27:2 68:1 122:1 173:1 454:1 717:1 1277:1 1867:1 1868:1 
-0.3 0:1 85:1 1869:1 
-0.3 0:1 85:1 1870:1 
-0.3 0:1 15:1 40:1 
-0.3 0:1 2:1 11:1 17:1 27:1 40:1 48:2 68:1 85:2 105:1 406:1 607:1 1026:1 1200:1 1713:1 1725:1 1862:1 1871:1 
-0.3 0:1 2:1 7:1 17:1 26:1 27:1 50:2 52:1 72:1 75:1 409:1 556:1 1303:1 1514:1 1597:1 1713:1 1872:1 
-0.3 0:1 7:1 17:2 31:1 48:2 77:1 85:1 199:1 230:1 244:1 419:1 424:1 441:1 725:1 759:1 855:1 856:1 1873:1 1874:1 
-0.3 0:1 11:1 13:1 17:1 34:1 122:1 133:1 215:1 244:1 419:1 605:1 607:1 1120:1 1713:1 1875:1 1876:1 
-0.3 0:1 2:2 11:1 13:1 20:2 34:1 48:1 50:2 90:1 122:1 199:1 479:1 517:1 570:1 1174:1 1736:1 1877:1 1878:1 
-0.3 0:1 2:1 11:2 17:1 75:1 88:1 106:1 997:1 1174:1 1210:1 1879:1 
-0.3 0:1 2:2 13:1 34:1 68:1 85:1 106:1 124:1 199:1 466:1 473:1 479:1 617:1 686:1 1880:1 1881:1 1882:1 1883:1 1884:1 1885:1 
-0.3 0:1 2:2 11:1 34:1 50:1 88:1 106:1 128:1 133:1 167:1 200:1 201:1 346:1 1514:1 1886:1 
-0.3 0:1 2:1 11:2 19:1 34:1 48:1 100:1 230:1 349:1 366:1 1288:1 1887:1 1888:1 1889:1 
-0.3 0:1 2:1 13:2 43:2 48:2 50:1 56:1 77:1 85:1 208:2 366:1 476:1 731:1 842:1 874:1 982:1 1890:1 1891:1 
-0.3 0:1 2:1 5:1 17:1 43:1 50:2 85:1 106:2 122:1 151:1 155:1 437:1 470:1 719:1 1058:1 1093:1 1713:1 1867:1 1892:1 1893:1 
-0.3 0:1 2:1 13:1 34:1 48:2 50:1 85:2 105:1 327:1 328:1 393:1 1571:1 1725:1 1761:1 1894:1 
-0.3 0:1 2:1 31:2 34:3 37:1 70:1 75:1 122:1 271:1 278:1 343:1 1559:1 1598:1 1895:1 1896:1 
-0.3 0:1 17:1 27:1 122:1 151:1 202:1 1501:1 1713:1 
-0.3 0:1 2:1 17:1 52:1 106:1 149:1 533:1 949:1 951:1 1897:1 1898:1 1899:1 1900:1 
-0.3 0:1 691:1 
-0.3 0:1 57:2 1713:1 
-0.3 0:1 57:2 104:1 
-0.3 0:1 57:2 691:1 
-0.3 0:1 2:1 7:1 11:1 13:1 34:1 48:1 50:1 106:1 292:1 310:1 324:1 556:1 691:1 1597:1 1645:1 1901:1 
-0.3 0:1 2:1 48:1 50:1 56:1 77:1 86:1 207:1 244:1 1220:1 
-0.3 0:1 17:1 34:1 122:1 133:1 391:1 718:1 1902:1 
-0.3 0:1 2:6 20:1 25:2 42:1 43:1 57:5 77:1 104:2 166:1 188:1 230:1 552:1 955:1 956:1 1116:1 1214:1 1646:1 
-0.3 0:1 2:3 57:1 68:1 77:1 122:1 230:1 
-0.3 0:1 7:1 57:1 188:1 1722:1 
-0.3 0:1 2:1 57:1 230:1 370:1 413:1 552:1 1008:1 
-0.3 0:1 7:1 54:1 57:1 188:1 
-0.3 0:1 2:3 17:1 19:1 20:1 31:1 50:1 57:3 68:1 84:1 85:1 90:1 178:2 190:1 230:1 349:1 447:1 911:1 983:1 1066:1 1903:1 
-0.3 0:1 2:1 20:1 85:1 552:1 1904:1 
-0.3 0:1 2:1 7:1 11:1 31:1 57:2 99:1 165:1 1091:1 
-0.3 0:1 7:2 11:1 31:1 53:1 79:2 
-0.3 0:1 5:1 7:1 53:2 59:1 104:1 188:1 394:1 
-0.3 0:1 2:1 13:1 57:1 104:1 177:1 976:1 
-0.3 0:1 2:2 7:1 11:1 37:1 42:1 43:1 52:1 97:1 173:1 243:1 695:1 837:1 1189:1 
-0.3 0:1 7:2 31:1 42:2 43:2 52:2 57:1 133:1 429:1 1104:1 
-0.3 0:1 2:2 50:1 54:1 57:4 97:1 206:1 229:1 779:1 1206:1 1435:1 
-0.3 0:1 7:1 11:1 34:1 53:2 75:2 90:1 97:1 100:1 133:1 295:1 308:1 357:1 366:1 598:1 695:1 779:1 1096:1 1189:1 1905:1 1906:1 
-0.3 0:1 2:2 20:1 26:1 27:1 48:1 57:5 75:3 97:1 133:2 208:1 384:1 467:1 761:1 762:1 1061:1 1189:1 1907:1 
-0.3 0:1 57:1 97:1 1189:1 
-0.3 0:1 53:3 57:1 90:1 133:1 168:1 218:1 587:1 1189:1 1908:1 
-0.3 0:1 2:2 7:1 17:1 27:1 34:1 50:2 57:5 68:1 85:4 161:1 206:2 207:1 287:1 330:1 525:1 731:1 779:1 905:1 976:1 1050:1 1072:1 
-0.3 0:1 2:1 7:1 11:1 27:1 37:1 134:1 189:1 291:1 353:1 523:1 811:1 976:1 1114:1 
-0.3 0:1 2:2 11:1 13:2 17:2 34:2 36:2 37:1 48:2 57:2 68:4 85:1 97:1 161:1 316:1 408:1 466:1 623:1 1189:1 1221:1 1736:2 1909:1 1910:1 
-0.3 0:1 2:2 7:2 13:1 17:2 20:1 53:1 57:3 68:1 85:1 133:2 161:1 165:1 171:1 445:1 589:1 1911:2 
-0.3 0:1 17:1 20:1 25:1 42:1 552:1 955:1 956:1 1116:1 1646:1 
-0.3 0:1 2:1 19:1 26:1 27:1 34:2 50:1 52:1 53:2 68:1 75:1 97:1 151:1 167:1 200:1 201:1 476:1 625:1 1189:1 1912:1 
-0.3 0:1 2:1 53:1 88:1 161:1 552:1 1698:1 
-0.3 0:1 7:1 53:1 104:1 130:1 217:3 443:1 1605:2 1913:1 
-0.3 0:1 188:1 263:1 
-0.3 0:1 2:1 13:1 57:1 935:1 1065:1 
-0.3 0:1 53:2 935:1 1173:1 1914:1 1915:1 
-0.3 0:1 2:1 13:1 53:1 347:1 
-0.3 0:1 7:1 50:2 53:1 57:1 394:2 
-0.3 0:1 2:1 7:2 11:1 20:2 50:1 53:1 85:1 97:1 166:1 1061:1 1189:1 1916:1 
-0.3 0:1 2:1 7:3 57:3 79:1 207:1 237:1 412:1 
-0.3 0:1 34:1 53:1 57:2 84:1 173:1 188:1 250:1 378:1 455:1 1079:1 1180:1 1917:1 
-0.3 0:1 13:1 57:1 88:1 
-0.3 0:1 2:1 53:1 122:1 202:1 1918:1 
-0.3 0:1 2:1 7:1 57:1 85:1 188:1 261:1 321:1 552:1 814:1 
-0.3 0:1 57:2 97:1 735:1 1597:1 
-0.3 0:1 7:2 53:2 97:1 1435:1 1911:1 
-0.3 0:1 2:1 53:1 60:1 85:1 443:1 1220:1 
-0.3 0:1 7:2 11:1 17:1 19:1 26:1 34:1 48:1 75:1 90:1 295:1 508:1 541:1 625:1 1191:1 1219:1 1912:1 1919:1 
-0.3 0:1 7:1 13:1 479:1 
-0.3 0:1 7:1 34:1 53:2 54:1 57:1 68:1 176:1 
-0.3 0:1 57:1 184:1 
-0.3 0:1 2:1 17:2 27:1 34:2 48:2 53:1 79:1 85:3 122:1 167:1 278:1 349:1 477:1 622:1 718:1 898:1 976:2 1287:2 1641:1 1890:1 1920:1 
-0.3 0:1 26:1 53:1 130:1 324:1 
-0.3 0:1 57:1 184:1 
-0.3 0:1 1:1 53:1 57:1 
-0.3 0:1 2:1 26:2 53:2 57:6 726:1 948:1 1158:1 1911:1 1921:5 1922:4 
-0.3 0:1 1:1 2:2 13:1 17:1 20:1 26:1 27:1 34:2 37:1 48:1 85:3 106:1 167:1 278:1 513:1 976:1 1514:1 1641:1 1836:1 1923:1 1924:1 1925:1 1926:1 
-0.3 0:1 1:1 2:2 11:1 34:1 48:1 53:2 71:1 181:1 214:1 839:1 1002:1 1476:1 1519:1 
-0.3 0:1 11:1 53:3 75:1 84:1 90:1 133:1 214:1 388:1 1180:1 1927:1 
-0.3 0:1 53:2 71:1 1928:1 
-0.3 0:1 2:1 11:1 50:2 70:1 72:1 166:1 230:1 418:1 1788:1 1929:1 1930:1 
-0.3 0:1 11:1 13:1 17:1 68:1 133:1 161:1 165:1 1722:1 1931:1 
-0.3 0:1 7:1 53:1 59:1 104:1 
-0.3 0:1 57:1 324:1 
-0.3 0:1 7:1 57:1 
-0.3 0:1 57:1 1229:1 
-0.3 0:1 7:1 57:1 75:1 349:1 470:1 
-0.3 0:1 2:2 11:1 13:1 17:1 20:1 34:2 37:1 48:1 50:1 62:1 65:1 70:1 79:1 85:2 100:1 106:1 122:1 133:1 199:1 295:2 357:1 366:1 419:1 584:1 623:1 658:1 898:1 1132:1 1301:1 1444:1 1462:1 1932:1 1933:1 1934:1 1935:1 1936:1 
-0.3 0:1 2:2 10:1 11:1 13:2 34:1 40:1 133:1 168:1 194:2 216:1 295:1 316:1 366:1 594:1 617:1 734:1 1937:1 1938:1 1939:1 1940:1 1941:1 1942:1 
-0.3 0:1 53:1 75:1 90:1 295:1 357:1 659:1 
-0.3 0:1 2:2 11:4 13:1 17:2 27:1 34:1 48:2 50:2 62:1 68:1 85:1 86:1 90:1 102:1 244:1 295:1 357:1 366:1 584:1 596:1 598:1 691:2 912:1 1115:1 1191:1 1219:1 1301:1 1645:1 1736:1 1943:1 1944:1 1945:1 
-0.3 0:1 2:1 11:2 65:1 75:1 133:1 241:1 603:1 811:1 1133:1 1917:1 
-0.3 0:1 1:1 2:2 13:3 19:1 37:1 48:1 52:1 53:2 57:1 68:2 173:1 202:1 384:1 437:1 731:1 1200:1 
-0.3 0:1 1:1 2:3 11:1 17:1 19:1 27:2 37:2 40:1 48:1 50:2 52:1 57:1 68:1 75:1 79:2 85:2 88:1 93:1 106:1 112:1 151:1 172:1 232:1 328:1 366:1 830:1 898:2 976:1 1281:1 1946:1 1947:1 
-0.3 0:1 2:3 11:2 27:1 40:1 43:2 48:2 79:1 85:2 106:1 116:1 128:1 166:2 230:1 353:2 366:1 613:1 811:1 898:1 914:1 976:1 1114:2 1217:1 1275:1 1910:1 
-0.3 0:1 17:1 57:1 75:2 133:1 151:3 170:1 241:1 735:1 962:1 1133:1 
-0.3 0:1 1:1 2:1 11:1 13:1 27:1 40:1 68:1 85:2 90:1 108:1 133:2 151:1 215:1 422:1 437:1 445:1 932:1 1946:1 1948:1 1949:1 
-0.3 0:1 11:1 13:2 57:2 68:2 422:1 873:1 976:1 
-0.3 0:1 2:3 13:1 17:2 19:1 27:2 34:1 37:2 50:1 68:2 85:4 106:1 118:1 167:2 305:1 353:1 388:1 408:1 461:1 839:1 976:1 982:2 1133:1 1136:1 1140:1 1200:1 1920:1 1950:1 1951:1 1952:1 1953:1 1954:1 1955:1 1956:1 
-0.3 0:1 2:1 11:2 13:1 17:2 34:1 37:1 48:1 50:1 57:1 68:1 85:1 88:1 106:1 167:1 253:1 366:1 419:1 609:1 976:1 997:1 1133:1 1258:1 1323:1 1430:1 1957:1 
-0.3 0:1 2:2 15:2 17:2 19:1 27:3 34:1 40:1 48:1 68:1 79:1 85:3 391:1 408:2 702:1 976:1 1116:1 1178:1 1221:1 1958:1 1959:1 
-0.3 0:1 53:2 348:1 
-0.3 0:1 57:1 155:1 719:1 
-0.3 0:1 48:1 53:2 85:1 1340:1 1725:1 1960:1 
-0.3 0:1 2:1 34:1 48:1 57:1 84:1 274:1 316:1 364:1 406:1 606:1 646:1 1571:1 1961:1 1962:1 
-0.3 0:1 20:1 37:1 57:2 85:1 90:1 133:1 165:1 1963:1 1964:1 
-0.3 0:1 54:1 57:1 1244:1 
-0.3 0:1 2:1 7:2 11:1 27:1 31:1 34:1 57:1 79:1 85:1 133:1 207:2 248:1 394:1 538:1 898:1 1229:1 
-0.3 0:1 1:1 2:1 11:2 17:1 50:1 57:2 68:1 106:1 121:1 349:1 353:1 444:1 862:1 1950:1 1965:1 1966:1 
-0.3 0:1 7:1 53:1 57:1 
-0.3 0:1 1:1 7:1 57:1 
-0.3 0:1 1:1 7:1 53:1 57:2 768:1 
-0.3 0:1 1:1 54:1 57:2 
-0.3 0:1 53:1 85:1 420:1 
-0.3 0:1 2:1 11:1 13:1 34:1 57:2 68:1 79:1 88:2 161:2 712:1 
-0.3 0:1 1:1 57:1 
-0.3 0:1 7:1 53:1 57:1 
-0.3 0:1 7:1 13:1 57:1 165:1 
-0.3 0:1 54:1 57:1 
-0.3 0:1 57:1 75:1 79:1 88:1 
-0.3 0:1 1:2 2:1 7:2 11:3 13:1 19:1 53:3 90:1 106:1 122:1 133:1 161:1 169:1 246:1 293:1 316:1 364:1 384:1 412:1 714:1 913:1 1238:1 1967:1 
-0.3 0:1 2:1 27:1 57:3 161:1 330:1 364:1 462:1 830:1 910:2 
-0.3 0:1 1:1 57:1 
-0.3 0:1 2:5 7:1 11:1 13:1 27:1 31:1 34:3 85:2 90:1 167:1 177:1 190:2 293:1 295:1 298:1 316:1 343:2 412:1 473:1 959:1 976:1 1048:1 1059:1 1326:1 1426:1 1764:1 1968:1 1969:1 1970:1 
-0.3 0:1 1:2 2:1 7:3 11:2 13:2 15:1 48:1 53:1 57:1 68:1 118:1 167:1 206:2 224:1 276:2 349:2 408:1 702:1 795:1 976:1 1093:1 1440:1 1971:1 
-0.3 0:1 1:1 57:1 
-0.3 0:1 1:1 2:1 53:2 90:1 133:1 587:1 
-0.3 0:1 1:1 53:2 104:1 1229:1 1972:1 
-0.3 0:1 7:1 53:1 57:1 
-0.3 0:1 1:1 57:1 
-0.3 0:1 2:1 17:1 19:2 75:1 151:1 184:1 277:1 1973:1 
-0.3 0:1 2:1 6:1 20:1 85:2 370:1 651:1 719:1 1763:1 1791:1 
-0.3 0:1 1:1 19:1 57:1 151:1 
-0.3 0:1 17:1 27:1 34:1 68:1 87:1 106:1 552:1 1087:1 1304:1 
-0.3 0:1 2:1 17:1 31:2 43:1 50:1 57:1 64:2 72:1 106:1 114:1 133:1 166:1 786:1 1974:1 
-0.3 0:1 42:1 43:1 277:1 
-0.3 0:1 7:1 26:1 43:1 1874:1 1975:1 
-0.3 0:1 2:1 11:1 75:1 85:1 161:1 349:1 408:1 603:1 1976:1 
-0.3 0:1 521:1 
-0.3 0:1 13:1 17:1 75:1 151:2 177:1 204:1 277:1 846:1 976:1 
-0.3 0:1 2:1 11:1 17:1 20:1 37:1 50:2 72:1 86:1 122:1 161:1 177:1 277:1 384:1 721:1 797:1 976:1 1977:1 1978:1 
-0.3 0:1 2:1 17:1 50:1 75:1 122:2 133:1 190:1 467:1 786:1 1817:1 1979:1 
